{"layers":[{"inffiz":{},"math":{},"rus":{},"indach":{},"summa":{},"p1o":{},"p1no":{},"p2o":{},"p2no":{},"p3o":{},"p3no":{}},{"0":{"bias":-0.17911523397227141,"weights":{"inffiz":-0.19202532344798912,"math":-0.04935542020031251,"rus":0.11312642042349348,"indach":0.09465421079753672,"summa":-0.140769781397372,"p1o":0.04506483209423291,"p1no":-0.1575456702230657,"p2o":-0.0008005771591940502,"p2no":0.19143341071044792,"p3o":-0.07540139847445144,"p3no":0.17303036569465827}},"1":{"bias":-0.17966922010573053,"weights":{"inffiz":-0.05714634109706267,"math":-0.043926978581482576,"rus":0.19743558988280324,"indach":-0.050011386573970924,"summa":-0.19754818300715626,"p1o":-0.015500686151720929,"p1no":0.07453008982537207,"p2o":-0.09770151293442653,"p2no":-0.17799032126073316,"p3o":0.07569949222942957,"p3no":0.1593461339409289}},"2":{"bias":-0.001040136001123841,"weights":{"inffiz":0.1569851186710728,"math":0.05939915890426801,"rus":-0.06038027078142807,"indach":-0.19656525873616035,"summa":0.1328428439346515,"p1o":0.03372619424431777,"p1no":-0.2619188921591414,"p2o":-0.03288446712490105,"p2no":-0.2532529229427936,"p3o":0.031378743867350914,"p3no":-0.15359984199232343}},"3":{"bias":-0.16005355760088755,"weights":{"inffiz":0.09086975715513097,"math":0.0926364254946087,"rus":-0.055313102058040076,"indach":-0.18372125036548606,"summa":-0.1572557162325076,"p1o":-0.2006537548810337,"p1no":-0.11494912431699572,"p2o":0.0014242688932570996,"p2no":-0.1366425840522547,"p3o":0.1956138818481957,"p3no":-0.009692914639848251}},"4":{"bias":-0.049290232176441955,"weights":{"inffiz":-0.016834787396449013,"math":-0.24707080386883487,"rus":-0.24861654373646105,"indach":0.03584841244107569,"summa":-0.21009129350949707,"p1o":0.2455057590070254,"p1no":0.4709095960800005,"p2o":0.1390054372392054,"p2no":0.2631813463553186,"p3o":-0.027715757891867282,"p3no":0.10447810283000251}},"5":{"bias":-0.14677837292123094,"weights":{"inffiz":-0.14494791173425103,"math":-0.11322287520390277,"rus":-0.02900485928679073,"indach":-0.008794562892801464,"summa":-0.18573667888231954,"p1o":0.05623265502545169,"p1no":0.3804048120823848,"p2o":-0.04960725657311332,"p2no":0.32191961527683677,"p3o":0.13501738037842875,"p3no":-0.04890324824937443}},"6":{"bias":0.20256936333482028,"weights":{"inffiz":-0.11593382288089686,"math":0.053249568744849415,"rus":0.1652051267375552,"indach":0.05671583787894371,"summa":0.2187078456756694,"p1o":0.08549798743726957,"p1no":-0.16937952155671082,"p2o":-0.02222219505341452,"p2no":-0.26259264832840373,"p3o":-0.18439845751341072,"p3no":-0.22202096107681252}},"7":{"bias":-0.09143433554304681,"weights":{"inffiz":-0.1333141320730652,"math":0.061979127334514654,"rus":0.20153476082743704,"indach":0.01690150386165055,"summa":0.06170739491469521,"p1o":-0.18358562837985806,"p1no":-0.16487710335747136,"p2o":0.08980956685407679,"p2no":-0.0684363728000733,"p3o":0.1537267385020506,"p3no":-0.04655767685810267}},"8":{"bias":0.015959495431278496,"weights":{"inffiz":-0.021181656097287643,"math":0.10619503953737966,"rus":-0.19956250421991936,"indach":-0.04055171071827866,"summa":-0.14823466344399552,"p1o":0.012624025728746257,"p1no":0.12995384057328663,"p2o":-0.10989432588229531,"p2no":0.10201267906731118,"p3o":-0.12382440315372797,"p3no":0.15361635650665778}},"9":{"bias":0.005860422641747146,"weights":{"inffiz":-0.1535445834553694,"math":0.07241815922015059,"rus":-0.06241287005005524,"indach":0.07393932876334045,"summa":0.1158164762294555,"p1o":-0.13531520160034202,"p1no":-0.13961508767565348,"p2o":0.015950594663395677,"p2no":0.009756458116584345,"p3o":-0.09865060974099925,"p3no":-0.030199904192467666}},"10":{"bias":-0.055424558375223816,"weights":{"inffiz":-0.04656424479409471,"math":0.024775492397230432,"rus":0.04352058562766586,"indach":-0.18149825350846957,"summa":-0.11470120325209904,"p1o":0.09909367011532937,"p1no":0.1637927368462309,"p2o":0.20437242040594306,"p2no":0.041140772452870095,"p3o":-0.0535928616451959,"p3no":0.18290716317389752}},"11":{"bias":0.020995830265925094,"weights":{"inffiz":-0.17796102836065167,"math":0.019926879189744295,"rus":0.0003456011704336011,"indach":-0.005190689757732235,"summa":0.046947730827262626,"p1o":0.2462069228165503,"p1no":0.34544995843340437,"p2o":-0.07207768883171105,"p2no":0.18124433992259711,"p3o":-0.10918574405560064,"p3no":-0.1401698563189353}},"12":{"bias":0.11942338212908658,"weights":{"inffiz":0.022071155594062294,"math":0.2319141433731201,"rus":0.17906565788146434,"indach":-0.1166924050219493,"summa":-0.12526289625130255,"p1o":-0.10447263365966901,"p1no":-0.05621607172911754,"p2o":-0.21343181723896726,"p2no":-0.27037643880415413,"p3o":-0.06778770791259181,"p3no":-0.1508933902768154}},"13":{"bias":-0.06988136027626758,"weights":{"inffiz":0.04547876542484461,"math":-0.020704860968463443,"rus":0.02327882303869615,"indach":0.13292448543891366,"summa":0.06331666972101255,"p1o":0.13490406975648012,"p1no":0.18514254874513056,"p2o":0.05572959796706421,"p2no":-0.05362683439959702,"p3o":-0.04712920368652258,"p3no":0.20313660448746446}},"14":{"bias":-0.11669817346347636,"weights":{"inffiz":-0.1328422623550638,"math":0.05666818491322027,"rus":-0.13742428671269283,"indach":0.14726264975015563,"summa":0.0593109269004926,"p1o":-0.16283320350847696,"p1no":-0.10573669211019904,"p2o":0.1147094328267438,"p2no":0.06832901423199932,"p3o":-0.048921405419720496,"p3no":0.14924403139653988}},"15":{"bias":-0.08313427545714015,"weights":{"inffiz":-0.12292035966842853,"math":0.16389274071904383,"rus":-0.12348032537810319,"indach":0.000567898230043649,"summa":-0.1369171052610084,"p1o":-0.02119559989773023,"p1no":-0.2705118746856364,"p2o":-0.017804685184522846,"p2no":-0.1350841994416923,"p3o":-0.18425872050168215,"p3no":0.12679347157566184}},"16":{"bias":0.04908674555423677,"weights":{"inffiz":0.008660974034418725,"math":0.10064807880849393,"rus":0.030624771327748813,"indach":-0.1345928997670736,"summa":-0.22916954616973345,"p1o":0.1670725927702011,"p1no":0.3647556245091144,"p2o":0.10679807674605232,"p2no":0.34595184606805074,"p3o":-0.16880168469493573,"p3no":-0.04850914113856311}},"17":{"bias":0.19474022685870016,"weights":{"inffiz":-0.08111860575552751,"math":0.08203272144250698,"rus":-0.006028230937405465,"indach":-0.14738273815105976,"summa":0.18614724024035703,"p1o":-0.010079218663850706,"p1no":-0.1100817287358354,"p2o":0.07813534253797197,"p2no":-0.0437685865097596,"p3o":-0.0014301834931523493,"p3no":0.11991640304912221}},"18":{"bias":0.11798077431389713,"weights":{"inffiz":-0.09411291403946027,"math":-0.03916557929429955,"rus":0.15316096476809496,"indach":0.10915327191068608,"summa":-0.1910386108082939,"p1o":-0.11863885803081169,"p1no":0.0663067650901087,"p2o":0.08957846070512458,"p2no":0.2155290804894994,"p3o":0.05169595898086555,"p3no":0.1007361343907025}},"19":{"bias":0.04195710458467815,"weights":{"inffiz":0.06875913979771862,"math":0.02175026365633837,"rus":0.15719035392645428,"indach":0.016664201715194032,"summa":0.13571983681943114,"p1o":0.058346847400168045,"p1no":0.1974046014325404,"p2o":-0.15948355885916016,"p2no":0.06228847950881406,"p3o":0.002054001635074277,"p3no":0.053915047203665946}},"20":{"bias":0.10529444507485941,"weights":{"inffiz":-0.08744796048574179,"math":0.17685672972285035,"rus":-0.032336663745809235,"indach":0.055843347867033336,"summa":0.02700521652589113,"p1o":0.09229097174319145,"p1no":-0.23335792590671964,"p2o":-0.09263912556255552,"p2no":-0.2285903161620739,"p3o":0.0845276740231857,"p3no":-0.14720497616803327}},"21":{"bias":0.05130817594370898,"weights":{"inffiz":-0.08192986984774614,"math":-0.1853422011329986,"rus":0.09190196570871939,"indach":-0.10879591623049675,"summa":-0.16854223301897014,"p1o":-0.133028026157327,"p1no":0.22102185651579184,"p2o":0.009998708140386996,"p2no":0.2793833616881898,"p3o":-0.057076495447708785,"p3no":0.09139767468100349}},"22":{"bias":-0.15611622296008087,"weights":{"inffiz":0.12801941143867682,"math":0.05575195583083553,"rus":0.051803666453862154,"indach":0.1147731026104076,"summa":0.012464837560453796,"p1o":-0.07647434562338508,"p1no":-0.11738056325566018,"p2o":0.06510418843702795,"p2no":-0.09662080944199117,"p3o":-0.07172792950054294,"p3no":-0.1653967912904204}},"23":{"bias":0.1183726740692276,"weights":{"inffiz":-0.07137512321176653,"math":0.0017053650960700902,"rus":-0.19250771926378898,"indach":-0.1248590591525137,"summa":-0.1853053349477253,"p1o":-0.09151188976598795,"p1no":0.3431967765763838,"p2o":0.043005630162056115,"p2no":0.2770891031816607,"p3o":0.10978250531142646,"p3no":0.09156592339542476}},"24":{"bias":-0.029871220620127214,"weights":{"inffiz":-0.01326550063311538,"math":-0.12649475035215932,"rus":-0.09532545912887225,"indach":-0.07490994684420872,"summa":-0.10114497622264865,"p1o":0.0027869767675721044,"p1no":0.28083849007151,"p2o":-0.12606404064956156,"p2no":0.18083716793147273,"p3o":0.19118161700911773,"p3no":-0.006921902475293484}},"25":{"bias":0.1781009874494748,"weights":{"inffiz":-0.13639349984031568,"math":-0.23083838473831497,"rus":0.0033423024153697713,"indach":-0.11508350059933935,"summa":-0.1359988536478071,"p1o":0.1209008454695685,"p1no":0.287071151738543,"p2o":0.01052650084160517,"p2no":0.16233105005875034,"p3o":0.03084188382524601,"p3no":0.21173127878030595}},"26":{"bias":0.0132286230222468,"weights":{"inffiz":-0.12305785864163889,"math":0.0807500131837431,"rus":0.06969553358231359,"indach":-0.06675989734722695,"summa":0.10709167645631168,"p1o":-0.053598357609147274,"p1no":-0.11501784223901788,"p2o":-0.134822912365649,"p2no":0.07664014689589503,"p3o":0.05672263584704246,"p3no":-0.13065156834788758}},"27":{"bias":-0.05870663338261425,"weights":{"inffiz":0.17075810109354517,"math":0.15620051162834772,"rus":0.24027104107250752,"indach":0.12730472337034537,"summa":-0.05596030437030951,"p1o":-0.14169982736068404,"p1no":-0.44655437587765273,"p2o":0.0163547440402279,"p2no":-0.03721632856690165,"p3o":0.08239254416632577,"p3no":-0.1728698521853763}},"28":{"bias":-0.18241403588004396,"weights":{"inffiz":-0.15868433553715236,"math":0.09872231854358468,"rus":-0.14030098386950904,"indach":-0.10311299419329932,"summa":0.13075873526429263,"p1o":-0.17906975290545718,"p1no":-0.05325245118764221,"p2o":-0.09490391937120393,"p2no":-0.24140615709371277,"p3o":-0.17705614048497417,"p3no":-0.23429556928056217}},"29":{"bias":0.0728758649736642,"weights":{"inffiz":0.10311567069532333,"math":0.06659321374820776,"rus":0.10102482362988503,"indach":-0.12173313115563637,"summa":0.0805750610604699,"p1o":0.03076753049876357,"p1no":-0.04505643212576616,"p2o":0.13991470728020405,"p2no":0.08404736115450107,"p3o":-0.11355243926690814,"p3no":-0.0673116657915798}},"30":{"bias":0.13500838403041,"weights":{"inffiz":0.11193040168443186,"math":0.01716851193107497,"rus":-0.14291657052172366,"indach":-0.057456683312195785,"summa":-0.10964969723515348,"p1o":0.14049899035517174,"p1no":0.34716341684237273,"p2o":0.10942351609029213,"p2no":0.08386245258407635,"p3o":-0.04857595717053647,"p3no":0.18469581568566923}},"31":{"bias":-0.09195547601401464,"weights":{"inffiz":-0.1595683653212826,"math":-0.047580861383976956,"rus":0.1358483010192459,"indach":0.002077815304987081,"summa":0.10099645529028804,"p1o":0.06814302810305292,"p1no":0.12310270138282926,"p2o":-0.018219178412481166,"p2no":0.024637969589658203,"p3o":-0.04497824440557305,"p3no":0.0078112874969683615}},"32":{"bias":-0.05406023567712719,"weights":{"inffiz":0.16970939064018561,"math":0.09561547457668214,"rus":0.1289470599542499,"indach":0.10628161178540614,"summa":0.11256622382086418,"p1o":-0.15734900132981477,"p1no":0.12927420050466273,"p2o":-0.13463901958485566,"p2no":0.227188455763912,"p3o":0.004016206202218394,"p3no":0.17765885166543935}},"33":{"bias":-0.1803884909195839,"weights":{"inffiz":0.08675609819649276,"math":0.0730333412251589,"rus":0.20651030295793965,"indach":-0.01604522806145305,"summa":0.12401729144370177,"p1o":-0.07612991824380096,"p1no":-0.1184872863943608,"p2o":-0.15887957724156548,"p2no":-0.3288438475507112,"p3o":-0.11920871544781875,"p3no":-0.1984414110460517}},"34":{"bias":-0.054130612392552256,"weights":{"inffiz":-0.058790034972860124,"math":0.19591686788587512,"rus":-0.01795805685370661,"indach":-0.1766564236144619,"summa":0.1854440362380754,"p1o":0.04993761605499529,"p1no":-0.20308505601401738,"p2o":0.19190056282231588,"p2no":0.14444501255809014,"p3o":0.15204170154140886,"p3no":0.01610895174995144}},"35":{"bias":0.1357171605165211,"weights":{"inffiz":0.1655012727045358,"math":0.01985036216630358,"rus":-0.11839347249841847,"indach":0.1504822760744055,"summa":0.1271472920520669,"p1o":-0.10500748374646218,"p1no":-0.25186268331343237,"p2o":0.018951308588107754,"p2no":-0.2766038653866476,"p3o":-0.11581802212338393,"p3no":0.05449318940884532}},"36":{"bias":0.07561092368718242,"weights":{"inffiz":-0.07374426514523302,"math":0.02853676803450832,"rus":0.1253452142337051,"indach":-0.015435698945444533,"summa":-0.0017209591078288743,"p1o":0.002156613047303141,"p1no":-0.15387902115824076,"p2o":0.11156427067201437,"p2no":-0.09602060586923032,"p3o":-0.15335077512648487,"p3no":-0.05982235833591835}},"37":{"bias":0.15167300158572228,"weights":{"inffiz":0.14490772881906566,"math":0.1580648326612525,"rus":-0.08664601975062503,"indach":0.15669365038937388,"summa":-0.16245294144314598,"p1o":-0.22235383582203505,"p1no":0.025186960250783944,"p2o":0.09314678380203911,"p2no":-0.15703229626718518,"p3o":0.0642775529378973,"p3no":-0.0066062905190368525}},"38":{"bias":0.15884623655821045,"weights":{"inffiz":-0.17036128269171782,"math":-0.04967491247817766,"rus":0.03070132727116584,"indach":0.15654773412278075,"summa":-0.18590710737674013,"p1o":-0.06416787441357985,"p1no":0.04795806180841374,"p2o":0.025646672833467412,"p2no":-0.13840158840689798,"p3o":-0.15788262554000188,"p3no":0.12370671668975965}},"39":{"bias":0.1404084465354935,"weights":{"inffiz":-0.15743928347734423,"math":-0.15672516779648837,"rus":0.18018283251869446,"indach":0.0040090003124104556,"summa":-0.013833493020685643,"p1o":-0.17595921743279175,"p1no":-0.27322731642187886,"p2o":-0.054710857916451444,"p2no":-0.20392424897150108,"p3o":0.05031500551650477,"p3no":0.12569324507967242}},"40":{"bias":-0.14966871609431961,"weights":{"inffiz":-0.08497651290983971,"math":-0.1278586858357164,"rus":0.18596772562994643,"indach":0.18308235205957854,"summa":-0.10206803179981846,"p1o":0.13652296669853548,"p1no":0.07986795260687687,"p2o":-0.0029019209542012663,"p2no":0.1639130667929126,"p3o":0.0808515768066691,"p3no":-0.14671638842527843}},"41":{"bias":-0.08461379009480598,"weights":{"inffiz":-0.11259307874987187,"math":-0.01487251907611119,"rus":-0.2299150219967785,"indach":0.0018527394277679389,"summa":-0.05479946400047002,"p1o":0.1299602768336798,"p1no":0.3177156806868052,"p2o":0.2127517488507518,"p2no":0.20783165684566202,"p3o":0.20270277976859288,"p3no":-0.09933477667155227}},"42":{"bias":-0.011207997874823074,"weights":{"inffiz":0.21971126672574104,"math":-0.050637244606189194,"rus":-0.019797651552081883,"indach":0.14424041147422492,"summa":-0.08272091716417006,"p1o":-0.04227225364452103,"p1no":-0.37445458381388863,"p2o":-0.13638103423583894,"p2no":-0.24291029541451165,"p3o":-0.199421468943919,"p3no":0.11825190545980323}},"43":{"bias":0.14077811587057634,"weights":{"inffiz":0.11948579698499395,"math":0.14771775726324962,"rus":0.020634067448590105,"indach":0.11827297541671689,"summa":-0.1954864786875252,"p1o":0.0043075535111025244,"p1no":0.21231894077067476,"p2o":0.202362572358123,"p2no":0.1447777341421693,"p3o":-0.014723101874306865,"p3no":-0.10062861437148929}},"44":{"bias":-0.14740701917528448,"weights":{"inffiz":-0.10386556251586361,"math":0.13078008242100922,"rus":-0.11939094077648729,"indach":-0.01876219064507208,"summa":0.03487687340507843,"p1o":0.12031839852507667,"p1no":0.08571981207007638,"p2o":-0.17409460025657822,"p2no":-0.13891987234397313,"p3o":-0.01510195350473558,"p3no":-0.030792627204049274}},"45":{"bias":-0.004221283719783879,"weights":{"inffiz":0.11908606049885312,"math":0.10088709666440791,"rus":0.06375324861723582,"indach":-0.12106995328323676,"summa":-0.20245586349216257,"p1o":0.2300327287967711,"p1no":0.29537422300270594,"p2o":0.15171615545395895,"p2no":0.12411382502512508,"p3o":-0.04344571047580178,"p3no":-0.03907694209726916}},"46":{"bias":-0.1637913514177533,"weights":{"inffiz":0.13099960947789174,"math":-0.030612458222794653,"rus":0.052938320754085416,"indach":-0.12606476894976765,"summa":0.10401393405666055,"p1o":-0.005224503836235711,"p1no":-0.25204529413719656,"p2o":0.16942625833452568,"p2no":0.0834516751507802,"p3o":0.09303220358586785,"p3no":-0.0009771952496947585}},"47":{"bias":0.04763537223231949,"weights":{"inffiz":0.1546160805117682,"math":0.18686875172467354,"rus":-0.03282084758794964,"indach":0.054591531261915495,"summa":0.1864983766262075,"p1o":0.09992655909997974,"p1no":-0.07115510532174643,"p2o":-0.10429074086941857,"p2no":-0.06101024697663763,"p3o":0.17251426143920515,"p3no":0.12106597665687649}},"48":{"bias":0.09646691876016182,"weights":{"inffiz":-0.006251541075402386,"math":-0.13705651558875856,"rus":-0.04463768742925247,"indach":0.08863428748425872,"summa":-0.0696903056950857,"p1o":-0.006620654925804352,"p1no":-0.2529146738083858,"p2o":0.04634922081069679,"p2no":-0.011969256510285657,"p3o":-0.12189985858162093,"p3no":-0.06180482273746987}},"49":{"bias":-0.0014620653847569579,"weights":{"inffiz":0.23075079240070384,"math":0.18780319985746968,"rus":0.10600534910978894,"indach":-0.19412662777490458,"summa":0.19902098170655333,"p1o":-0.10127209224321054,"p1no":-0.13058696343386225,"p2o":-0.20865397686431275,"p2no":-0.1181083625406742,"p3o":-0.039828764692777394,"p3no":-0.1282523402370518}},"50":{"bias":0.050559308207046676,"weights":{"inffiz":-0.06761240170135596,"math":0.12119503229844407,"rus":0.023643929888934587,"indach":-0.11718467381309394,"summa":0.06099567872431476,"p1o":-0.27985259896854037,"p1no":-0.20651442671118186,"p2o":0.10057146608643103,"p2no":-0.16018119154688934,"p3o":0.01120762289829166,"p3no":-0.15651477451747264}},"51":{"bias":0.1289484425722748,"weights":{"inffiz":-0.07473536532876861,"math":0.06463978798395405,"rus":-0.04066681438882883,"indach":0.0608911159429907,"summa":0.07556731137498246,"p1o":-0.0007094438851366633,"p1no":-0.2235722300246792,"p2o":-0.011356856081852813,"p2no":-0.09007337521690176,"p3o":-0.06054042040097672,"p3no":-0.21681979412838967}},"52":{"bias":0.12921889604148806,"weights":{"inffiz":0.044020856481637956,"math":-0.0551617718243088,"rus":0.153137916170445,"indach":-0.07865722626218219,"summa":-0.1000288847523819,"p1o":-0.10171215169740047,"p1no":0.04741990023085007,"p2o":0.16399382913169774,"p2no":0.09894775206797968,"p3o":-0.11413908231684232,"p3no":0.08136277462398128}},"53":{"bias":-0.12583029646779056,"weights":{"inffiz":-0.08437886157310451,"math":0.0378806972896925,"rus":0.20830427514610445,"indach":0.15650965959096438,"summa":0.02978496215462885,"p1o":-0.13488752471066215,"p1no":-0.39750883398446496,"p2o":-0.2213443794670349,"p2no":-0.2690185285861969,"p3o":0.022550368670556018,"p3no":0.03687133354822058}},"54":{"bias":0.1467216917243176,"weights":{"inffiz":-0.19584547291483292,"math":-0.16139069060747302,"rus":0.07343063063733496,"indach":-0.1524406009834628,"summa":0.08881209523131896,"p1o":0.010980188993689294,"p1no":0.012704547213387318,"p2o":0.18221562390490234,"p2no":0.08595029635839348,"p3o":-0.08601063268736008,"p3no":-0.00741222192087125}},"55":{"bias":-0.0522595464429807,"weights":{"inffiz":0.0989586009818493,"math":0.20522941896964317,"rus":0.1567583920316547,"indach":0.006833428357104174,"summa":-0.044001053521723774,"p1o":-0.10319683985456651,"p1no":-0.19205327004979222,"p2o":0.05171357209543961,"p2no":0.029328970851026263,"p3o":0.06354017262814285,"p3no":0.13263947576783772}},"56":{"bias":-0.012092262036447712,"weights":{"inffiz":0.11767821622271668,"math":-0.07023649193195701,"rus":-0.023610628958938486,"indach":0.1768298606117126,"summa":0.16460350794720224,"p1o":0.16140897270596546,"p1no":0.21829442386932624,"p2o":-0.1290025317100136,"p2no":0.1309170251504809,"p3o":-0.13845425011565493,"p3no":-0.06946897783214241}},"57":{"bias":-0.02354874179481333,"weights":{"inffiz":0.18552189383939333,"math":0.04525285411698733,"rus":0.23112528181654116,"indach":-0.17390028208777625,"summa":0.0014227747364248334,"p1o":0.053255592602174606,"p1no":-0.28301763777587935,"p2o":-0.1210106094636483,"p2no":-0.340986508686905,"p3o":-0.15945009878868247,"p3no":-0.005134478831296372}},"58":{"bias":-0.011290612210512821,"weights":{"inffiz":0.04402689755358077,"math":0.07793101367152033,"rus":0.1292581585286915,"indach":-0.1607299779835078,"summa":0.1861301334578755,"p1o":-0.0744795217853896,"p1no":-0.09500918599425645,"p2o":0.0400024064917357,"p2no":-0.10077615403047006,"p3o":0.07661721691240207,"p3no":0.11238131974738225}},"59":{"bias":-0.09275689349480275,"weights":{"inffiz":-0.06542421056163207,"math":-0.021022823678327942,"rus":0.13489917729232734,"indach":-0.1342391214495816,"summa":-0.05730781981235222,"p1o":0.05176196977299846,"p1no":-0.23968140828368692,"p2o":-0.02269221759371283,"p2no":-0.09668750085991594,"p3o":-0.20788222190421074,"p3no":-0.12896624016180414}},"60":{"bias":0.20776213816346978,"weights":{"inffiz":-0.0918832814629168,"math":0.1860355379726913,"rus":0.03841839663875382,"indach":0.09410050556274557,"summa":-0.010793400249066719,"p1o":-0.13286530839575936,"p1no":-0.35122763555234016,"p2o":-0.08173327835024757,"p2no":-0.20940813636550037,"p3o":0.08032706353174518,"p3no":-0.0977933507172257}},"61":{"bias":-0.11157033959320405,"weights":{"inffiz":-0.1770217543209045,"math":-0.10025671253309965,"rus":-0.01873772927436419,"indach":0.17456308773826573,"summa":-0.0035142287738419765,"p1o":-0.14038313303009736,"p1no":0.20217975377057776,"p2o":0.17507016307096143,"p2no":-0.1659796212507651,"p3o":-0.0680820480260006,"p3no":-0.009185427433629687}},"62":{"bias":0.014007685331145148,"weights":{"inffiz":0.11495166322677992,"math":-0.17447781861472078,"rus":0.187355004706099,"indach":-0.15609092927028398,"summa":0.09424877815462943,"p1o":0.1569058046858712,"p1no":-0.26151483440397044,"p2o":-0.06113100961143543,"p2no":0.06109473541111461,"p3o":-0.1553810519266715,"p3no":-0.15243700876752772}},"63":{"bias":0.028691885194985618,"weights":{"inffiz":-0.06190908608675907,"math":0.11754547981338874,"rus":-0.17166014478749142,"indach":0.16205926126050607,"summa":0.06864953950400844,"p1o":-0.01766364803842348,"p1no":0.006598724211178319,"p2o":-0.1530284455820348,"p2no":0.03511869818490565,"p3o":-0.10360704517950178,"p3no":0.033979119146233035}},"64":{"bias":0.15918135918804857,"weights":{"inffiz":0.08621124456119689,"math":-0.17887550064742125,"rus":-0.17998362233595097,"indach":-0.15404004554227965,"summa":-0.10439732119421306,"p1o":0.10733045998956578,"p1no":0.15132933851482444,"p2o":0.1540209330231121,"p2no":0.11811096111055318,"p3o":0.19076672660671173,"p3no":0.10124083842698213}},"65":{"bias":0.055135863655800414,"weights":{"inffiz":0.0039941707484863614,"math":-0.12873909844095316,"rus":-0.08409642049202908,"indach":-0.18670827885399452,"summa":-0.09049187482396846,"p1o":0.1353829643954713,"p1no":0.2028840120067064,"p2o":-0.18189813627927293,"p2no":0.04399118064596093,"p3o":0.11029566672971586,"p3no":-0.1734993612025203}},"66":{"bias":-0.13113618376564334,"weights":{"inffiz":-0.039514628893690694,"math":-0.10836231315078526,"rus":0.07690102660458517,"indach":-0.02298642739016334,"summa":-0.12340619646108097,"p1o":0.048824153981228656,"p1no":-0.13827174733188508,"p2o":0.14559622958432475,"p2no":-0.31512864616474323,"p3o":0.1269699907781264,"p3no":-0.2055093521157351}},"67":{"bias":0.039792884803096264,"weights":{"inffiz":0.01786885174408452,"math":-0.008637222960996503,"rus":-0.21893060715430931,"indach":0.15337409407582958,"summa":-0.20797828682809721,"p1o":-0.036942244862323156,"p1no":0.307214891754309,"p2o":-0.07524202846523875,"p2no":0.00887624617399593,"p3o":0.011306668883042643,"p3no":-0.03444643651444219}},"68":{"bias":-0.12256502452982668,"weights":{"inffiz":0.12345257892567676,"math":-0.0014300433835423944,"rus":0.11422430029776423,"indach":-0.15226684534478027,"summa":-0.007341321846732254,"p1o":-0.09407859903361449,"p1no":0.3766955991233036,"p2o":-0.14551418097034413,"p2no":0.1507360113948097,"p3o":-0.08720069506605554,"p3no":0.21367033283815856}},"69":{"bias":-0.03384539892894117,"weights":{"inffiz":0.10249259490840469,"math":-0.04141445325907595,"rus":-0.026396912444104005,"indach":-0.10903158203936926,"summa":0.04367251270190117,"p1o":0.17595928212142312,"p1no":0.026115198037185962,"p2o":0.03799657608334156,"p2no":-0.1380416491930202,"p3o":-0.15935452770349232,"p3no":-0.1891167759286367}},"70":{"bias":0.1393003475239663,"weights":{"inffiz":0.0738194972119672,"math":0.037686447751110304,"rus":-0.11370370943572662,"indach":0.033969844893182194,"summa":-0.11947938657580262,"p1o":-0.24090481256715887,"p1no":-0.23850840203260262,"p2o":0.15972290860530397,"p2no":-0.1659728193321739,"p3o":-0.16024111727505072,"p3no":-0.11874884466918567}},"71":{"bias":0.110693242896089,"weights":{"inffiz":-0.19387400618009754,"math":0.08130348465935311,"rus":-0.20445444825141615,"indach":0.15092255944342597,"summa":0.1047167226045819,"p1o":0.01123459872478117,"p1no":0.18420164529049485,"p2o":-0.017204286447795765,"p2no":-0.02261872862516375,"p3o":0.10565126444662155,"p3no":-0.0635978156329673}},"72":{"bias":-0.07110732047527607,"weights":{"inffiz":0.09771733659970971,"math":-0.11486176798627505,"rus":-0.022677484808025665,"indach":-0.06976378349960206,"summa":0.13363752874248555,"p1o":0.21844269025572732,"p1no":0.15414811137496334,"p2o":0.0887039211078445,"p2no":0.29563348510354104,"p3o":-0.019114302156529248,"p3no":-0.00008110832073806681}},"73":{"bias":0.12965503994554758,"weights":{"inffiz":-0.16251854434689636,"math":-0.1637116543546492,"rus":-0.15525142800292335,"indach":-0.13789953836639235,"summa":0.010065489004093481,"p1o":-0.09873075365301384,"p1no":0.362619604102129,"p2o":-0.03109329703018966,"p2no":0.3003368781137356,"p3o":0.009872306398398884,"p3no":0.22369273975841622}},"74":{"bias":-0.18396443906636362,"weights":{"inffiz":-0.022207534664319004,"math":-0.006151516095258919,"rus":-0.21373794511154445,"indach":-0.024309389017254376,"summa":0.04974314447282684,"p1o":0.1998406278981569,"p1no":0.2625576889523679,"p2o":-0.14078815298587546,"p2no":0.16041663259898278,"p3o":-0.12597344640414543,"p3no":-0.00611493448599049}},"75":{"bias":0.10662058478268477,"weights":{"inffiz":-0.04751406685032749,"math":0.19290433787498845,"rus":0.038021689068677554,"indach":-0.03477091856260398,"summa":-0.11914860426537588,"p1o":-0.2246188361817204,"p1no":-0.1381972614463639,"p2o":0.14225021041066882,"p2no":0.09252241663469239,"p3o":-0.07217605970197846,"p3no":-0.1780934447042752}},"76":{"bias":-0.1336330299667868,"weights":{"inffiz":-0.028906629415032664,"math":0.12535341326912292,"rus":-0.010832881506211272,"indach":-0.04339948077039598,"summa":0.12628947017642309,"p1o":-0.08500643876253303,"p1no":-0.29466840973183406,"p2o":-0.0884380343322611,"p2no":-0.1390736487801576,"p3o":-0.04351619292836982,"p3no":-0.16018486959743042}},"77":{"bias":-0.14442752082589536,"weights":{"inffiz":-0.15232717557813158,"math":0.050003717653489224,"rus":0.10420758015851035,"indach":-0.06992188924693836,"summa":-0.03297813859267171,"p1o":0.28826325034745043,"p1no":0.33523342550029217,"p2o":0.23213042147080268,"p2no":-0.026101738129320772,"p3o":-0.128419152872708,"p3no":0.027656875623735283}},"78":{"bias":-0.08156910984090977,"weights":{"inffiz":0.16584047808779745,"math":0.04974690206131876,"rus":-0.14279904103821245,"indach":-0.032326202669048405,"summa":0.11838032418654006,"p1o":-0.06806252889634691,"p1no":-0.1268137281878615,"p2o":-0.022556562771409973,"p2no":0.13082218241144464,"p3o":0.0682212940031038,"p3no":-0.16476655317703115}},"79":{"bias":0.12411057077024863,"weights":{"inffiz":0.012488858828198016,"math":0.11539889566514323,"rus":-0.15464472225876913,"indach":-0.07392047453863614,"summa":-0.10167014722514109,"p1o":-0.16453990240178332,"p1no":0.002575951741399927,"p2o":-0.14402165031893205,"p2no":0.03991061824471414,"p3o":0.009514841351135681,"p3no":0.18724302377005922}},"80":{"bias":0.1395946943977142,"weights":{"inffiz":0.006601748790116068,"math":0.0443640987080882,"rus":-0.06686750580994179,"indach":0.13088714810740376,"summa":0.013389605055968319,"p1o":-0.28200601542205006,"p1no":-0.341249083125855,"p2o":-0.1945782551913697,"p2no":-0.25604771944366517,"p3o":0.14908695700341998,"p3no":-0.0654561166930485}},"81":{"bias":-0.16206448507300186,"weights":{"inffiz":-0.12541199408228804,"math":-0.046673751967457905,"rus":-0.09111322790640228,"indach":-0.0768521555467727,"summa":0.07346357792774544,"p1o":0.11570979906748413,"p1no":-0.13372646817276004,"p2o":-0.08455152391319232,"p2no":-0.08547348630413858,"p3o":0.11543059616768056,"p3no":-0.008178814489858698}},"82":{"bias":-0.149756754986887,"weights":{"inffiz":0.1602220818361263,"math":-0.187932439766775,"rus":0.014852355449048006,"indach":-0.14316995159332163,"summa":-0.07769277219186031,"p1o":0.13510474235583292,"p1no":-0.12133812647241757,"p2o":-0.08991005088771932,"p2no":0.14902275468291348,"p3o":-0.04178510662310481,"p3no":0.14926084136144863}},"83":{"bias":-0.02121003746426953,"weights":{"inffiz":0.017271621154405656,"math":0.06105088484205045,"rus":0.0717603232154311,"indach":-0.0206631927615154,"summa":0.002537454423078628,"p1o":0.045830384301214014,"p1no":-0.19149746077083282,"p2o":-0.0863007672671655,"p2no":-0.1873937689765489,"p3o":-0.19228246936287172,"p3no":-0.14758911506961056}},"84":{"bias":-0.17797102519757593,"weights":{"inffiz":-0.05444047568135624,"math":0.13938288591245265,"rus":0.07431132601563328,"indach":0.04043815848454568,"summa":-0.1355857932443877,"p1o":-0.22996106264173194,"p1no":-0.22694955818002793,"p2o":0.1562051901898577,"p2no":0.02648228669088803,"p3o":-0.0418326638296078,"p3no":-0.024316124076495985}},"85":{"bias":-0.054880797494061,"weights":{"inffiz":0.09507417283669224,"math":0.008974435709848806,"rus":-0.04987140571455741,"indach":0.1683435712378011,"summa":0.06751727173937586,"p1o":-0.09062684688675253,"p1no":-0.3706329561374171,"p2o":0.1438878924588377,"p2no":-0.041847466849769574,"p3o":0.17380158366194676,"p3no":-0.22919707019467453}},"86":{"bias":0.11729811344526998,"weights":{"inffiz":0.034896360679339614,"math":0.13777282165146448,"rus":-0.05412030166730497,"indach":-0.13778887686633573,"summa":-0.14816377818696042,"p1o":-0.10052017903600415,"p1no":0.25688093962301906,"p2o":0.08452644041493013,"p2no":0.24885886151408576,"p3o":-0.02301527353701775,"p3no":-0.05429454291336114}},"87":{"bias":0.1579968966568072,"weights":{"inffiz":0.040389086263641016,"math":-0.10188007612135921,"rus":0.11303065141836845,"indach":0.12011338741863485,"summa":0.12007662212902673,"p1o":-0.07200506225892837,"p1no":-0.3913706090291578,"p2o":-0.02601449210402026,"p2no":-0.28964442710528887,"p3o":0.10204483026261138,"p3no":-0.24281105793601843}},"88":{"bias":0.16144579254049007,"weights":{"inffiz":-0.05783604662445323,"math":0.0886951345237845,"rus":0.13026244679757337,"indach":-0.1896607416967038,"summa":-0.1606300949553177,"p1o":-0.10068991540398593,"p1no":0.2816257039382355,"p2o":0.14642067914465842,"p2no":0.2490900758361281,"p3o":-0.11200018935629993,"p3no":-0.09359677230453675}},"89":{"bias":0.19803314080478715,"weights":{"inffiz":0.1567694708848141,"math":0.09472284802738565,"rus":0.014996330770544578,"indach":0.08126014831326837,"summa":0.10277766389015343,"p1o":0.07291735510030535,"p1no":-0.07510876250484237,"p2o":0.11298828534176433,"p2no":-0.15866923986097853,"p3o":-0.1715024619557865,"p3no":0.14229997685441556}},"90":{"bias":-0.10655130278782028,"weights":{"inffiz":0.043835383380643245,"math":0.07209634491822602,"rus":0.04832878248360133,"indach":0.1276748252950654,"summa":0.23656580867870036,"p1o":-0.04469757786133457,"p1no":-0.2580548956176057,"p2o":-0.05924971890439552,"p2no":-0.20954755919978701,"p3o":0.14683271620656108,"p3no":-0.1426272569885505}},"91":{"bias":-0.07646199774114788,"weights":{"inffiz":-0.09524120160803179,"math":0.17295028176079943,"rus":-0.0023358556069777523,"indach":0.1556514372405156,"summa":0.09517880660408368,"p1o":-0.13496634257792062,"p1no":0.007090574507195567,"p2o":0.04561103120476084,"p2no":-0.20663430572756333,"p3o":0.08428012127421593,"p3no":-0.15137481056141244}},"92":{"bias":-0.1441101707270624,"weights":{"inffiz":-0.11605066349589536,"math":0.029892710153009837,"rus":-0.09844514096635901,"indach":0.08406210920557236,"summa":-0.023074306157324413,"p1o":-0.19824371310767622,"p1no":-0.005929021681621616,"p2o":-0.01104535202147712,"p2no":0.07872518521183508,"p3o":-0.04301118937709401,"p3no":0.021084541756678142}},"93":{"bias":-0.11936654581545526,"weights":{"inffiz":0.10028843217858598,"math":-0.16928598008990578,"rus":-0.08932109921476822,"indach":-0.06788553206261662,"summa":0.04304474020850175,"p1o":0.08127588219870835,"p1no":-0.15365381602378916,"p2o":0.18424991928632148,"p2no":0.1623658403104367,"p3o":0.07074067236578209,"p3no":0.1980316960040745}},"94":{"bias":0.050497258012847296,"weights":{"inffiz":-0.12383468796745922,"math":0.1449517010291524,"rus":-0.20046822626086494,"indach":-0.06150154104130649,"summa":0.1371348126741202,"p1o":0.19637588671741837,"p1no":0.1580705690630417,"p2o":0.12124007087858142,"p2no":0.2567936731053548,"p3o":-0.09242897607095471,"p3no":0.1455031573358672}},"95":{"bias":0.08174391823211657,"weights":{"inffiz":-0.08008262089247178,"math":-0.06608892900003374,"rus":-0.07207257837930872,"indach":-0.11439404765545372,"summa":-0.0241974663994369,"p1o":0.14912787248360082,"p1no":0.053357483495376695,"p2o":-0.16935968811873736,"p2no":0.02431096655809921,"p3o":0.18491983110596397,"p3no":-0.11224951736166379}},"96":{"bias":-0.014296001431290915,"weights":{"inffiz":-0.0017459095673273179,"math":0.03953040758282436,"rus":-0.09194170101997746,"indach":0.00566893745531987,"summa":0.12951744033489068,"p1o":-0.18433185317225317,"p1no":0.09007851906849416,"p2o":0.17189051617728945,"p2no":0.17445421223905325,"p3o":-0.1269541258025839,"p3no":-0.20672645330768122}},"97":{"bias":0.14936045971781245,"weights":{"inffiz":-0.17424852336486668,"math":0.177771663747367,"rus":-0.1675735577921512,"indach":-0.035206938360897375,"summa":-0.1657308855500318,"p1o":-0.12163948486686528,"p1no":-0.27733643571968225,"p2o":-0.18161444031521448,"p2no":0.007219016279157966,"p3o":0.018925908267123114,"p3no":-0.14729768186533626}},"98":{"bias":0.09861716506846153,"weights":{"inffiz":0.08561246457790593,"math":-0.08015264429878195,"rus":0.21209518894205012,"indach":0.07624798551135518,"summa":0.13796453673090653,"p1o":-0.28535549101824753,"p1no":-0.3064980733100589,"p2o":-0.2072416132579053,"p2no":-0.12192196312166344,"p3o":-0.13784514438330847,"p3no":-0.10766839116131313}},"99":{"bias":0.009667685943479472,"weights":{"inffiz":0.25221742922191476,"math":0.19247370481280565,"rus":-0.040594556768594546,"indach":0.07670053892198839,"summa":0.07957708496119789,"p1o":-0.22280634900866433,"p1no":-0.22475225416470276,"p2o":-0.15884870836309245,"p2no":-0.2114450258813871,"p3o":-0.08444989502647555,"p3no":-0.27414310665464164}},"100":{"bias":-0.08959894490078947,"weights":{"inffiz":-0.14750133412216151,"math":0.011856684805020376,"rus":0.08902302022813195,"indach":0.03818447457916431,"summa":0.11042119540996968,"p1o":-0.1062494053428759,"p1no":0.07182899005538462,"p2o":0.15641661532003223,"p2no":0.005022174879396906,"p3o":-0.014726202263207382,"p3no":-0.03387478420964964}},"101":{"bias":0.10208987564360275,"weights":{"inffiz":-0.1869889792965061,"math":-0.10229286397651562,"rus":0.11657237540885437,"indach":0.12730864793122484,"summa":-0.06480053141082076,"p1o":0.024795719329332184,"p1no":0.25005387892436043,"p2o":0.08264114427179614,"p2no":0.3011602376301205,"p3o":0.1839515148805705,"p3no":-0.10814432420005263}},"102":{"bias":-0.17601763391567352,"weights":{"inffiz":0.08352436858212425,"math":-0.04688835805307134,"rus":-0.11176046471490149,"indach":0.06777637817842937,"summa":-0.12264541502691455,"p1o":-0.12868797471500176,"p1no":-0.25265089132933255,"p2o":0.13541557470612825,"p2no":-0.26967356137245213,"p3o":-0.14106945478948568,"p3no":0.12303375871735547}},"103":{"bias":0.11120489652370988,"weights":{"inffiz":0.09610149738056709,"math":-0.07195335496951895,"rus":0.13900293090309385,"indach":-0.12068659906703844,"summa":0.04363766967744931,"p1o":0.08032231655187448,"p1no":-0.16417984741530184,"p2o":-0.1964413682986846,"p2no":-0.07836283026822786,"p3o":0.1848772412330708,"p3no":0.10332927420104213}},"104":{"bias":0.0009807010875937734,"weights":{"inffiz":0.16514385104245088,"math":0.23318853039135926,"rus":-0.005852868059826283,"indach":-0.17811631298347497,"summa":0.016771822257391218,"p1o":-0.18922208378936137,"p1no":-0.2633009792597406,"p2o":-0.07165213913814163,"p2no":-0.21305959893530277,"p3o":0.1892717783772909,"p3no":-0.1833210723644783}},"105":{"bias":-0.023135205484497916,"weights":{"inffiz":-0.19575944436947862,"math":-0.13433610396498838,"rus":-0.1261548836990762,"indach":0.013582805443286503,"summa":-0.08146729489146619,"p1o":0.05903603933997686,"p1no":0.19335783168097848,"p2o":0.026724714680237287,"p2no":0.279456551900295,"p3o":0.04646183858867935,"p3no":0.1203072941183044}},"106":{"bias":0.16856364699034623,"weights":{"inffiz":-0.13257070413376645,"math":-0.10198960780419855,"rus":-0.0667179302564323,"indach":-0.08510541950918987,"summa":0.1387021755117721,"p1o":-0.12881902481051316,"p1no":0.20753740584295816,"p2o":-0.024141864194447648,"p2no":0.01682278449699955,"p3o":0.09224472396765032,"p3no":0.012100587905587483}},"107":{"bias":-0.125778533457271,"weights":{"inffiz":0.07870472781036944,"math":0.026658267990022497,"rus":-0.11059995968909879,"indach":-0.05455328459977443,"summa":0.05198006235188664,"p1o":-0.0008603267204870197,"p1no":-0.06864183286683717,"p2o":-0.1353123017971159,"p2no":-0.1830313340175156,"p3o":0.03671225483900097,"p3no":0.1626283660783048}},"108":{"bias":0.12222376757825035,"weights":{"inffiz":0.06872703664688903,"math":0.020892172802566042,"rus":-0.20990530168679944,"indach":0.012327443093980588,"summa":-0.1369269155712081,"p1o":0.018034728650914916,"p1no":0.11331704510449819,"p2o":-0.16701656822574923,"p2no":0.161730526037547,"p3o":-0.09158969002294647,"p3no":-0.08082315888046411}},"109":{"bias":-0.0516821590429881,"weights":{"inffiz":-0.11805377836060515,"math":0.016929391536653116,"rus":0.13374944760205257,"indach":0.1641168009294318,"summa":-0.18927955827176454,"p1o":-0.12770490901025197,"p1no":0.02764176796929964,"p2o":-0.03816175726462791,"p2no":-0.2056917427481133,"p3o":-0.059034835528187925,"p3no":0.09537287162421931}},"110":{"bias":-0.05256887766200298,"weights":{"inffiz":0.16498541747763956,"math":0.14175101598808393,"rus":-0.16418695994448126,"indach":0.15842400031940765,"summa":-0.09594104034970316,"p1o":-0.1828191171305657,"p1no":-0.013087223592779938,"p2o":-0.09124295757216781,"p2no":-0.13684621297373217,"p3o":-0.079152885498643,"p3no":-0.031458939334002914}},"111":{"bias":-0.031146592054125104,"weights":{"inffiz":0.18012849562985908,"math":0.04084872640245804,"rus":-0.12633308844484764,"indach":-0.16866958101829282,"summa":-0.1208031825336699,"p1o":-0.15522789351347865,"p1no":-0.0970806052706016,"p2o":0.057856100931439156,"p2no":-0.08947377587555982,"p3o":0.003883722459459154,"p3no":-0.23404848916942664}},"112":{"bias":-0.029457098063928704,"weights":{"inffiz":-0.007214271871265732,"math":-0.06282313823475716,"rus":0.014278830776554396,"indach":-0.03932822994488951,"summa":0.018644524559406975,"p1o":0.09191251243353353,"p1no":-0.0009876684024151367,"p2o":-0.22945678323043472,"p2no":-0.21055856319053054,"p3o":-0.007311535366298846,"p3no":0.13863433569432254}},"113":{"bias":0.08417899242349774,"weights":{"inffiz":0.07959554926837524,"math":-0.08047464027108336,"rus":0.11206460603979969,"indach":0.02540486297831988,"summa":-0.14371852747707467,"p1o":-0.22402619503726698,"p1no":-0.2030441365395683,"p2o":0.08267986027784961,"p2no":-0.11600588819783421,"p3o":-0.07864333520657199,"p3no":-0.23846160188211188}},"114":{"bias":0.14161258873477975,"weights":{"inffiz":-0.055736462589505285,"math":0.07677798245133086,"rus":0.002280638883009187,"indach":0.17571041202258475,"summa":0.12529792981077062,"p1o":-0.08359857189099418,"p1no":0.16679202820702937,"p2o":0.07276288489493071,"p2no":-0.08723660681185945,"p3o":-0.17488941705968614,"p3no":0.11254699954622333}},"115":{"bias":-0.05068430569097569,"weights":{"inffiz":-0.03561581700946621,"math":0.025363458180635016,"rus":-0.021935855035952384,"indach":-0.04790826012875635,"summa":-0.06935931799040317,"p1o":-0.11773348114359067,"p1no":-0.2243452839459879,"p2o":-0.05947413792816835,"p2no":0.056453981807638935,"p3o":-0.01857894575442704,"p3no":0.0007826901110931585}},"116":{"bias":-0.0801772535773937,"weights":{"inffiz":-0.11292964526508581,"math":0.0801121777253272,"rus":0.08951583890742339,"indach":-0.14708839255003342,"summa":-0.020202943276605424,"p1o":-0.1330808500753595,"p1no":-0.1270867392670664,"p2o":0.10119920984483782,"p2no":-0.0671214835815607,"p3o":-0.0048829920496468796,"p3no":-0.12263893840429196}},"117":{"bias":-0.02245402451822978,"weights":{"inffiz":0.102217164670716,"math":-0.14584796762615965,"rus":0.13226218730957678,"indach":-0.1559658228969465,"summa":-0.022859090506252667,"p1o":-0.17533187838443948,"p1no":-0.2214165329767536,"p2o":0.147622182540498,"p2no":-0.24974171776377152,"p3o":-0.12294395868303758,"p3no":0.03290292551322441}},"118":{"bias":0.13008438020564922,"weights":{"inffiz":-0.056258902875425176,"math":0.12750841838293614,"rus":-0.07855087082113867,"indach":0.18631766486584642,"summa":-0.1384056472507457,"p1o":0.2496287601780055,"p1no":0.19085264702976798,"p2o":0.06748250834914535,"p2no":0.12227873474949749,"p3o":-0.03713741992811202,"p3no":0.2489902608542934}},"119":{"bias":0.006488289695552076,"weights":{"inffiz":-0.11956958688357443,"math":0.09632354135761366,"rus":-0.04446998247252354,"indach":0.07958047431339135,"summa":0.11781623125903502,"p1o":-0.14055876646048351,"p1no":-0.3832140896347122,"p2o":0.10050624395173362,"p2no":-0.0016238309490383667,"p3o":0.08392664173403765,"p3no":-0.2165593364513389}},"120":{"bias":-0.09973579850291396,"weights":{"inffiz":-0.07365578340484924,"math":0.08293022574868764,"rus":0.20977786269463974,"indach":0.15077207677091636,"summa":0.04794742795190679,"p1o":-0.15890157600341168,"p1no":-0.277563109412618,"p2o":0.12161324684970977,"p2no":0.04698158779689313,"p3o":0.17762953561815897,"p3no":-0.14810209214789433}},"121":{"bias":0.04347377796061902,"weights":{"inffiz":0.1430355417763442,"math":0.07456087541789685,"rus":0.08587868578286974,"indach":-0.1012905812187363,"summa":0.15383382312938715,"p1o":-0.17478867013035343,"p1no":-0.1914817159048832,"p2o":-0.11086282006839826,"p2no":-0.07574883227534239,"p3o":0.037287627871898016,"p3no":0.1184631083423691}},"122":{"bias":0.048165565294883105,"weights":{"inffiz":0.027338210277145794,"math":0.044249776915764365,"rus":-0.07791618712655492,"indach":0.1694951429752519,"summa":0.17300147798890217,"p1o":0.10272260156418535,"p1no":-0.20943017344706943,"p2o":-0.14392440178695046,"p2no":0.12064502571762134,"p3o":0.017320712557789098,"p3no":0.026362416329971543}},"123":{"bias":-0.031250076103845746,"weights":{"inffiz":-0.0707065931078149,"math":0.1372379473347476,"rus":0.13042456670861824,"indach":0.08460628265034181,"summa":0.12566554180585796,"p1o":-0.0969275299789815,"p1no":-0.224407543552078,"p2o":0.09233715312351382,"p2no":-0.347121463250047,"p3o":-0.13332072113312815,"p3no":-0.17285569671125608}},"124":{"bias":-0.04639146003133732,"weights":{"inffiz":0.028451972019731743,"math":-0.16549263397898725,"rus":-0.023090304373238463,"indach":0.18335838204560714,"summa":-0.17309944724255683,"p1o":0.24895162004057922,"p1no":0.23350151538400915,"p2o":-0.12516873082885055,"p2no":0.09521584038565517,"p3o":-0.1602966501381633,"p3no":0.2193276456621214}},"125":{"bias":0.18193783002120867,"weights":{"inffiz":0.055861724138129974,"math":0.024578114261904108,"rus":0.04767412428274135,"indach":0.11643382964175555,"summa":-0.09249719066695479,"p1o":-0.07441677274997312,"p1no":0.03953711759705326,"p2o":0.15582805894279417,"p2no":0.04494923946791324,"p3o":-0.03726991202522433,"p3no":0.09774671729959945}},"126":{"bias":-0.03437459710409109,"weights":{"inffiz":0.004214798150460914,"math":0.027096732987071995,"rus":0.0009919603783926326,"indach":0.1472962885428096,"summa":0.18468024502722266,"p1o":-0.1809638591632888,"p1no":-0.14761697726817163,"p2o":0.06153676299815833,"p2no":-0.10894770836100104,"p3o":-0.15241157350854603,"p3no":-0.08205256424731568}},"127":{"bias":-0.02328656042736821,"weights":{"inffiz":0.004006131980708899,"math":0.04521747799307455,"rus":0.023881613612431275,"indach":-0.03572121610097876,"summa":-0.11808054642821149,"p1o":0.16511787701693179,"p1no":0.1356504614774139,"p2o":-0.01085126699889721,"p2no":0.037023851397555936,"p3o":0.08069769073855639,"p3no":0.15709168041223842}}},{"0":{"bias":0.12988873678913762,"weights":{"0":-0.09419693007482267,"1":0.16571985966248978,"2":-0.08995618062614553,"3":-0.05969558619760549,"4":0.2234482697881206,"5":0.21450915221344194,"6":-0.11137919393775196,"7":-0.004216852042693448,"8":0.17469972756965424,"9":0.14640508282134665,"10":0.007285601541670458,"11":0.17845421643067413,"12":-0.22507342810870395,"13":0.11623321686029998,"14":-0.0011444516149608991,"15":-0.20822701276104078,"16":0.2384468629208528,"17":0.1664423539129261,"18":0.004087853522612934,"19":-0.06408221037429157,"20":-0.14513641856445997,"21":0.2002351031827044,"22":0.10130085348700736,"23":0.12237896200545405,"24":0.16603599543476782,"25":0.14754597918408974,"26":-0.037032040879854435,"27":0.07113088727423053,"28":-0.17840169274922174,"29":-0.12771222943486213,"30":-0.1366150368806032,"31":0.0883715444642359,"32":0.07441905748346626,"33":0.12807025207489744,"34":0.05326133168291336,"35":-0.022231331095550436,"36":-0.2040094216637642,"37":0.11856805035354868,"38":0.12102872360563445,"39":0.07416569086886529,"40":0.08273583893636949,"41":0.024015745125567516,"42":0.03583868246849717,"43":0.16330261127499876,"44":-0.1954729707450618,"45":0.032049505436565276,"46":-0.21045371089375323,"47":-0.15973569218284173,"48":-0.08361204913048875,"49":0.0719635235695176,"50":-0.242857949256045,"51":-0.20615397268695376,"52":-0.05048713337128588,"53":-0.12715025869782184,"54":0.03127647558364338,"55":0.016584892028689992,"56":0.09506746319884005,"57":0.07617830886661935,"58":-0.1073877180664101,"59":-0.16255461504423666,"60":0.0318549191492852,"61":0.1020350503553091,"62":-0.1847297187569489,"63":0.17589846995177394,"64":-0.175001118463207,"65":0.13132540147993,"66":-0.16596241646705065,"67":-0.05061907977563153,"68":0.10556420770032575,"69":0.04710561600255169,"70":0.01104720327883367,"71":0.023108692738688274,"72":-0.020030380640196323,"73":0.11299936820486683,"74":-0.100064058549245,"75":0.11094833313609988,"76":-0.14849319195689956,"77":0.1277241644256064,"78":0.03953471909828968,"79":-0.20342163056034845,"80":-0.26137735420277736,"81":-0.17786744053538284,"82":0.038970488453436175,"83":-0.16977992670067765,"84":0.12188232748386851,"85":-0.18848581890150365,"86":-0.1557546188040967,"87":-0.23919629711489768,"88":-0.0670490110206656,"89":0.12601287813005288,"90":-0.014179309948281612,"91":0.05910262691979172,"92":0.04253163717189204,"93":0.13118998455964118,"94":0.1408648973399565,"95":-0.060797786366677944,"96":0.05754084364889012,"97":-0.05490505867274642,"98":0.03793244086155233,"99":-0.11911021763518717,"100":0.04104903972638518,"101":0.21974291046054656,"102":-0.19746369372790434,"103":-0.08272220194792371,"104":-0.09109371579557458,"105":-0.1308864448298307,"106":-0.12223910176184734,"107":-0.04556649338629981,"108":0.18598760453167412,"109":-0.07258748934845358,"110":0.03695574703141797,"111":0.0478993720742236,"112":-0.17984630044402328,"113":-0.18407875730128212,"114":0.1558533464862379,"115":0.14931402569125296,"116":-0.17020692801367837,"117":-0.15517730998228116,"118":-0.07998472826178493,"119":-0.20293370279712525,"120":0.09415869234941475,"121":-0.21725160049383674,"122":-0.16418275521569883,"123":0.035860518693775094,"124":-0.06636075477001427,"125":-0.1992425095128123,"126":-0.0007554643271996144,"127":-0.09981072019867138}},"1":{"bias":-0.12635137462501417,"weights":{"0":-0.17870348509191486,"1":-0.09331333263328302,"2":0.17473013777286214,"3":0.07859318724683234,"4":-0.038964276408754495,"5":-0.1850980478043519,"6":0.1369426127135871,"7":0.05107039944859163,"8":0.022814190879085074,"9":0.008898413315544694,"10":0.036757382342334846,"11":-0.05305443528138503,"12":0.13521935160665366,"13":0.11532291287065334,"14":-0.07029611120723564,"15":0.08419722397326376,"16":-0.01296976638253449,"17":-0.129437985082738,"18":-0.14353891517679718,"19":-0.10493033681718407,"20":-0.13746000678790643,"21":0.14902382285678756,"22":0.18875893581395395,"23":-0.11821229705850202,"24":-0.21657145164351294,"25":0.0728289815379893,"26":0.2076823378812752,"27":0.1716367883838256,"28":0.17048912154622947,"29":0.06992087249348276,"30":-0.22621200899145574,"31":0.1109248349724395,"32":0.10970471448953102,"33":0.05981518799367115,"34":0.0006061953306416976,"35":0.17843398322912254,"36":0.04830093353593533,"37":0.09615452879049524,"38":-0.07535018917187189,"39":0.09702060253134559,"40":-0.07278124829202481,"41":-0.25058541281433816,"42":0.15286841955364877,"43":-0.2169885160326376,"44":0.15919051017309746,"45":-0.11367464474633354,"46":0.06056466177858456,"47":-0.08760227717620579,"48":-0.05867002304754376,"49":-0.047913516934427455,"50":-0.027631738854295273,"51":-0.08703500447201819,"52":-0.19390452039962378,"53":-0.0582569398369341,"54":0.013760842098423298,"55":0.07499377836596664,"56":0.10819791247246319,"57":-0.09798994163482949,"58":-0.07849566953981382,"59":0.20824661597469976,"60":0.09219900167356129,"61":0.17984247360495048,"62":0.11267468236559916,"63":0.07372432018163814,"64":-0.20417631404827766,"65":0.08874581287758455,"66":0.0557031029821816,"67":-0.1991291444013323,"68":-0.022197155740225016,"69":-0.18925220618518013,"70":0.22879337304329125,"71":0.02178271120579539,"72":0.05000255924689794,"73":-0.08984459124586777,"74":0.15678328280440973,"75":-0.138633308475711,"76":-0.14957222822946123,"77":-0.007744005504388699,"78":0.006309277577239878,"79":0.18594442811820713,"80":-0.06780330473065174,"81":0.1464367999516675,"82":0.09242192813467857,"83":-0.15545936643446917,"84":-0.11791871685054027,"85":0.10293033601327282,"86":-0.10317677022283055,"87":0.15542035586227657,"88":0.14426059248267106,"89":-0.12639350702486957,"90":0.13253324336230893,"91":0.11489723880149037,"92":0.12519192717569433,"93":-0.11847221980548488,"94":-0.23516733302855022,"95":-0.08360934607299962,"96":-0.016930800521291096,"97":0.019466604707444,"98":-0.06555752187584016,"99":0.21761239504835375,"100":0.16277415622579497,"101":-0.039141468955151894,"102":0.2212837266059613,"103":0.12640648491948503,"104":0.037038649611269674,"105":-0.1370506744653255,"106":0.11736486340661341,"107":-0.09361353110120871,"108":-0.1694981179992905,"109":-0.1694328505233811,"110":-0.12555196952347797,"111":-0.0007055836551992867,"112":0.18659753299748097,"113":-0.15014621141786913,"114":-0.13474156476249532,"115":0.18101998518024176,"116":0.20606056880586188,"117":0.14250920588503435,"118":-0.1481054954725518,"119":-0.07361812631957851,"120":0.21291130048740314,"121":-0.05257063839253614,"122":0.1108777443326987,"123":0.23273437766439345,"124":0.12414835604344415,"125":-0.06453009394841591,"126":-0.046524221607274666,"127":0.15890147864944698}},"2":{"bias":-0.06366770316414713,"weights":{"0":0.18910913957556041,"1":0.08486734459129422,"2":0.161414877726268,"3":0.1044447785925282,"4":0.0772081276519811,"5":0.13176192512780865,"6":-0.015278590693594269,"7":0.19689031565921752,"8":-0.1478004133730503,"9":0.11578850097139497,"10":-0.05334684255072823,"11":0.14444618275693785,"12":-0.013969319805222721,"13":-0.20179384310781548,"14":-0.19255835902926127,"15":-0.13712267008777884,"16":0.15444701395647234,"17":-0.02747290334633475,"18":-0.050521904749346695,"19":-0.16816548939834533,"20":0.018117131810614688,"21":0.05430758638327701,"22":-0.07586309538655486,"23":0.12478926904831739,"24":0.17914108224734412,"25":-0.14064222335295037,"26":-0.12432065281905809,"27":-0.16324431878209172,"28":0.10205780425158367,"29":0.06966988514859264,"30":-0.19344542448013094,"31":-0.05260558246681139,"32":-0.0919976368420649,"33":-0.023047997748155087,"34":0.0446567213528675,"35":0.008631842757177016,"36":0.126662052906533,"37":-0.0479686516488456,"38":0.02706521888171392,"39":0.0996456847601841,"40":-0.09003952810340438,"41":-0.10365970012935775,"42":0.054951127978282215,"43":0.09094048624271883,"44":-0.06681897981757252,"45":0.11206958732728789,"46":0.017621736793568307,"47":-0.18084012832255275,"48":-0.0376845116637604,"49":-0.1641601249150016,"50":-0.04706297166443516,"51":0.004521731391328096,"52":0.15007081365501337,"53":0.16545872688404786,"54":0.00012978560913132724,"55":0.20393571198232657,"56":0.05223178624166537,"57":-0.15033989834289185,"58":0.15474162334553102,"59":-0.1303405911034765,"60":0.20530064010471183,"61":-0.14771800906197555,"62":-0.10597275328745351,"63":0.040790533507359825,"64":-0.033846174630153374,"65":-0.19499282124006379,"66":-0.03143359319761229,"67":-0.02058295202117017,"68":-0.11886047985339171,"69":-0.049752200879759595,"70":-0.15023451336099913,"71":-0.15769997642159225,"72":-0.11880550695440455,"73":-0.18775141990993235,"74":0.06917633475557684,"75":-0.04920226748239461,"76":-0.07516304085106303,"77":-0.08882458183703552,"78":-0.02742015636442294,"79":-0.031089979023722104,"80":0.0322674946663462,"81":-0.12283166412262977,"82":-0.025632515756143358,"83":0.11661429476832606,"84":-0.009151413326853318,"85":-0.012167686298488448,"86":-0.012825829825215932,"87":0.15044663924250784,"88":0.08094182560416023,"89":-0.017406861422771293,"90":0.049551017388640296,"91":0.07816858462324738,"92":0.1366256017325359,"93":0.00860821624011323,"94":0.049970885733701786,"95":0.05003183892682772,"96":-0.19419394189745215,"97":0.18773576712356427,"98":0.10496344649106953,"99":-0.0740131064220817,"100":0.18735924804807158,"101":-0.12024326094557028,"102":-0.11557140549159198,"103":-0.00973552519662194,"104":-0.015231194546216131,"105":0.011954783500440134,"106":-0.19571134626826245,"107":0.18748185884947438,"108":0.004641756148401076,"109":-0.1638301977095059,"110":0.006827587219246005,"111":0.04252962646548588,"112":0.0024479394557240975,"113":-0.15652726592705082,"114":-0.11959614697707155,"115":-0.09516445586068845,"116":0.04501729591956209,"117":0.023960792948769995,"118":0.11962087214783745,"119":-0.08480690374584009,"120":-0.14739934498017196,"121":-0.11958428775095069,"122":0.021799185749922755,"123":-0.0028352207833056823,"124":-0.15790866716902013,"125":-0.0988973730387209,"126":0.06995490023877465,"127":-0.0521724620417951}},"3":{"bias":0.00015970070381961054,"weights":{"0":-0.14021621540526902,"1":-0.0032108705089216104,"2":-0.12973104786732673,"3":0.02759312904700494,"4":0.2288240215789945,"5":-0.15137999632274113,"6":0.010076406827157802,"7":-0.05980573439571846,"8":0.08331207296898505,"9":-0.12110862837003228,"10":-0.12156945839586385,"11":-0.01227419477464355,"12":-0.05294588310643874,"13":-0.02473864924753852,"14":-0.023876117777229908,"15":0.013346434300643932,"16":-0.1137494400376941,"17":0.09101495479365741,"18":0.1415830402567752,"19":0.08207076331281729,"20":-0.10204891068212642,"21":0.019322934868816696,"22":-0.0101499913091814,"23":0.05764033785157728,"24":0.1576998679249153,"25":0.06778633601641414,"26":0.05817394899840368,"27":0.16748814623128497,"28":0.15238238571434204,"29":0.15507830391554095,"30":0.13055811450759078,"31":-0.0018815200100485666,"32":-0.025193088837909296,"33":0.16872129471695063,"34":-0.09510101799297545,"35":-0.06364287243075414,"36":-0.0837018915464582,"37":-0.173675517916031,"38":-0.1831625894513775,"39":-0.09576449548207354,"40":0.1030164948364543,"41":0.10528913765819402,"42":-0.03413891217300018,"43":0.11513853382399239,"44":0.036663695149208766,"45":0.11594444863591802,"46":-0.10872735232309366,"47":0.08876670632467326,"48":-0.05969813067990491,"49":-0.19742610895144974,"50":-0.11393367093651716,"51":-0.15957482051054941,"52":0.1563019123937528,"53":0.10906303130441675,"54":-0.003517794936395543,"55":0.026897491001546148,"56":-0.07191189368760004,"57":-0.11349010326219941,"58":-0.16077292851658265,"59":-0.20578867002621593,"60":0.05082279128861024,"61":-0.12984433007872545,"62":-0.005364856511261909,"63":-0.16129687612591628,"64":-0.03765983125204435,"65":-0.05700016180441531,"66":-0.19616095064430258,"67":0.1251714877170044,"68":0.18189224100405724,"69":0.017364568605019642,"70":-0.06127477098971515,"71":0.16211486637948824,"72":0.09707611816681394,"73":0.14180250503485503,"74":-0.1378967167647801,"75":-0.08274738913229754,"76":0.07411705099973731,"77":0.024398615426905256,"78":0.07789430942213514,"79":-0.013576997435829099,"80":-0.009267792172588945,"81":-0.12325805548749087,"82":0.05269514203010479,"83":0.0035488249882129163,"84":0.1384826984176035,"85":0.04834971146720114,"86":-0.11324124232426251,"87":-0.2198884087998439,"88":-0.017234672083611468,"89":-0.030357161890374667,"90":-0.10054971079631597,"91":-0.12092813322975816,"92":-0.05371194992906667,"93":-0.17626509099101487,"94":-0.07550113576345403,"95":-0.15703614693072535,"96":0.15878695953217173,"97":-0.19645287168662987,"98":-0.18124575747159608,"99":-0.18222569709951658,"100":0.18170985294189995,"101":0.06338727393461374,"102":-0.13672168753187808,"103":-0.17180812601946727,"104":0.14676971271383996,"105":0.14990244298457905,"106":-0.053283003733531537,"107":0.16383717783979126,"108":0.10182909159305382,"109":0.07519812871817141,"110":0.17218393221736247,"111":0.1049839890342109,"112":-0.1621129216688904,"113":0.09235319851332642,"114":0.05533466604593696,"115":-0.20715754490909874,"116":-0.08951320798511368,"117":-0.19688423030257676,"118":-0.005317297435613731,"119":0.1516062461546709,"120":-0.1954387398602702,"121":-0.12027268864841996,"122":0.15454532813243152,"123":-0.16765499389400346,"124":-0.06608085875990177,"125":-0.0803788524026855,"126":-0.20568276561224108,"127":0.01661075489618222}},"4":{"bias":0.0250887302893468,"weights":{"0":-0.15353006233889038,"1":-0.16391556427864684,"2":-0.16959159465192172,"3":0.03550988175373706,"4":0.25596599976870427,"5":0.17607679014517513,"6":-0.23503411715218553,"7":0.09339286257632598,"8":-0.04304281391302321,"9":0.1389511803212582,"10":0.04353016977522186,"11":0.22748226424760845,"12":-0.10024171605388858,"13":-0.13728926557606783,"14":-0.07955999432850168,"15":-0.053884719321797295,"16":0.21523517039800286,"17":0.008160729000164681,"18":0.09952967687736133,"19":0.18669488373503393,"20":0.13783766741953288,"21":0.09866832153858925,"22":-0.04487733806794522,"23":-0.14296126067997517,"24":0.07789662668527068,"25":0.0592419037052873,"26":0.09627170878782162,"27":-0.10742488454931613,"28":-0.05769773383631267,"29":-0.10664247924699216,"30":0.03902850714582026,"31":0.13734344093507636,"32":-0.13318005963137564,"33":-0.18489990121676028,"34":-0.08101215476314409,"35":-0.20421001045841636,"36":0.14178834222072018,"37":-0.07408008675869122,"38":0.12701535486159213,"39":-0.02250415003523501,"40":-0.1244070922877163,"41":0.1436199907931279,"42":-0.24737915509713346,"43":0.12615928775152369,"44":-0.11437673421697415,"45":0.10599498803152581,"46":0.09974940895282232,"47":-0.03671782191389833,"48":0.017366347139540998,"49":0.07313200928990925,"50":-0.13036029164195156,"51":0.012639398700196753,"52":0.03014046951343649,"53":-0.14880645910715015,"54":0.1239832389018903,"55":-0.022928906316089053,"56":0.09659269078548548,"57":0.050941792907549556,"58":-0.016831673002270713,"59":-0.2192653205004485,"60":-0.1749037201768604,"61":0.028695824826375955,"62":-0.16886167132912228,"63":0.027129418353043912,"64":0.08721772856810468,"65":-0.002369900093851424,"66":-0.12804037458579579,"67":-0.13083472328135481,"68":0.2144288700314097,"69":-0.10300106110925206,"70":-0.05140210494309748,"71":0.010705537904676668,"72":0.20692081808566098,"73":0.22660433046729062,"74":-0.06369806904913511,"75":-0.17070337521898027,"76":0.03372138030120256,"77":0.01798765281004944,"78":-0.08384088078432514,"79":0.10120665966973676,"80":0.10933250668971028,"81":-0.16066444326831109,"82":-0.07410266457023941,"83":0.015312440718216795,"84":-0.08513947190791574,"85":-0.23035087667454815,"86":0.037169862677600404,"87":0.0869055870377465,"88":-0.04345438564261221,"89":-0.1089058278574709,"90":-0.080447251947356,"91":-0.10113106968125173,"92":0.19314772274383,"93":-0.09130689979807824,"94":-0.0798037761335444,"95":-0.11533185435154858,"96":0.09253169066073431,"97":-0.014511309497300548,"98":-0.19596761997993692,"99":-0.1648969627818019,"100":-0.1859470007736856,"101":0.2290003393005961,"102":0.15310612991265396,"103":-0.11043604939996578,"104":0.07822598426606442,"105":-0.02865232222282669,"106":0.05872354909355545,"107":-0.019762405162238456,"108":-0.08488485355612321,"109":-0.14971982338201764,"110":-0.07800135008853167,"111":-0.04662103475087066,"112":-0.18194158335025243,"113":0.05758685394693997,"114":-0.03514229345276282,"115":0.010935594981522384,"116":-0.13554707768595786,"117":-0.08146166086635395,"118":0.21151980869147413,"119":-0.213442705786872,"120":-0.01971408180568986,"121":-0.013100757915859958,"122":0.03734332221681324,"123":0.09377746361768158,"124":-0.0508078746069829,"125":-0.06241818820109428,"126":0.07598347048576079,"127":0.21202748071350738}},"5":{"bias":0.02700155921997073,"weights":{"0":-0.11306082104781649,"1":-0.18858261365636886,"2":0.22085436914416753,"3":-0.04907740463154627,"4":0.09163033803201284,"5":0.020856285244657623,"6":0.15093151139891758,"7":-0.040728316139470186,"8":-0.14515129563657758,"9":0.12182153769170588,"10":0.1552834162749537,"11":-0.19529388014184498,"12":-0.003131401069870799,"13":-0.08618297434015944,"14":-0.12986859348724608,"15":-0.005678337959054616,"16":-0.18152454533768314,"17":0.1245703372763646,"18":-0.11080113088300118,"19":-0.025205903364998526,"20":0.0702019927943862,"21":-0.13682745011243616,"22":-0.06824190229275817,"23":-0.10930225906521379,"24":0.1329563456835622,"25":0.14505589931785798,"26":0.14563071897018345,"27":0.05781565537002268,"28":0.1241670837963118,"29":-0.052356701083591715,"30":-0.08802916656958114,"31":-0.02189294022131239,"32":-0.12499243200898028,"33":0.14325970538564234,"34":-0.08679502341693165,"35":0.08163523097297525,"36":0.1918578601425805,"37":0.11111709246503632,"38":-0.010693723954840181,"39":0.039547844546438844,"40":-0.18224455351045746,"41":-0.17982106565394265,"42":-0.17323018105495827,"43":0.10193326524564097,"44":0.03342636678194201,"45":0.049067532755503185,"46":-0.10989872167920255,"47":-0.10488715778027688,"48":0.14057181955226816,"49":0.139099879913613,"50":-0.08952400485839586,"51":-0.15024607930376183,"52":0.06735317255990131,"53":-0.023233830152373933,"54":-0.01565113665746556,"55":0.11165355972595929,"56":-0.12494590872277395,"57":0.05329494829804602,"58":0.16244807175991777,"59":0.16631967397406822,"60":0.0998672337305877,"61":0.04349134636639754,"62":-0.17191397200736708,"63":0.1378453588548417,"64":0.10789802390652097,"65":0.03166844091254578,"66":0.020678371781450083,"67":-0.050342589128826574,"68":-0.027665241547991038,"69":-0.14869382380692178,"70":0.09517650243443736,"71":0.04545104800001352,"72":0.1690060602177043,"73":-0.1261105856488946,"74":-0.12135124084563724,"75":-0.0871489694703261,"76":0.0005579116949051589,"77":-0.04388998526336007,"78":0.06631038237915911,"79":0.07720053878433723,"80":0.13735243632008834,"81":-0.001310789324363891,"82":-0.010698440153212398,"83":0.19500495117816083,"84":-0.11716864317475575,"85":-0.026572360061992917,"86":-0.004315642745395771,"87":0.08107042273814183,"88":-0.18627862600939613,"89":0.04665333169478127,"90":-0.17780628487329647,"91":0.00008811985755942454,"92":0.04697632405423956,"93":-0.1011661139298514,"94":-0.046464812096856434,"95":0.13779019533582715,"96":-0.023721734972140696,"97":0.14676889700456275,"98":0.20445139169001003,"99":0.1506120526862395,"100":-0.043602300088939776,"101":-0.010499910840522122,"102":0.053428337041152185,"103":0.1691703447321186,"104":0.1483502295294372,"105":-0.04476145326671782,"106":-0.02791332709247914,"107":0.1094296756358559,"108":-0.09035444720046111,"109":-0.0912393089874074,"110":0.12059407167391277,"111":-0.17178439822766456,"112":-0.1650056394405179,"113":0.08453723367263916,"114":0.11986296596731327,"115":0.07844102707915776,"116":-0.07116312248631593,"117":0.14756050933404985,"118":-0.20757760530717864,"119":0.06562459793289498,"120":0.13614470650402236,"121":-0.1214980153476799,"122":0.1633228277947387,"123":-0.010868672150629484,"124":-0.10495041760605094,"125":-0.03261899665051256,"126":0.20588743735347098,"127":-0.13067537084268074}},"6":{"bias":-0.1829937027553083,"weights":{"0":0.007142503197862256,"1":-0.04078919754398494,"2":0.14708222845122848,"3":-0.04098278154927734,"4":0.18489991809486836,"5":-0.10374215858673357,"6":0.1712347275035366,"7":0.10288455716472697,"8":-0.07757309341626263,"9":-0.16141774446539706,"10":0.011821679802460641,"11":0.09424341358110352,"12":0.12525475955112664,"13":0.14543502697983832,"14":0.091219665089827,"15":0.10127307657775976,"16":-0.140537272508272,"17":-0.19184519535460332,"18":0.04805083281564972,"19":-0.06163159707309305,"20":0.181258370367204,"21":0.14946359834861095,"22":-0.08336405408764223,"23":-0.025211783579703287,"24":-0.16823956725506958,"25":0.1337270564191815,"26":-0.19051790389919274,"27":0.027337197130619592,"28":-0.016830628448222376,"29":-0.04883223295118112,"30":-0.12196616340065225,"31":-0.07574258997860678,"32":0.10722758022628998,"33":0.029944216550622783,"34":0.09861467614028613,"35":-0.10201435511536003,"36":0.00952137799227711,"37":0.15880300886893614,"38":0.05885633817173448,"39":-0.01656687435408268,"40":-0.09650867869831767,"41":0.17767637915944925,"42":-0.1920281080688695,"43":0.16731622830997744,"44":-0.06768430511736437,"45":-0.0334022138262658,"46":0.17846085869283998,"47":-0.006653748659051358,"48":0.1065447779623285,"49":0.071631383704449,"50":0.132777886213032,"51":0.1307834928766367,"52":-0.07206669053776364,"53":0.19888088396032305,"54":-0.09314116283321994,"55":-0.029558135725264452,"56":0.02854288688060423,"57":-0.13855703665801325,"58":-0.022500812423741953,"59":0.039319671021501496,"60":0.010448822094153053,"61":-0.06730303443566284,"62":0.12237601484730494,"63":-0.16530880367969839,"64":0.06942876879558704,"65":-0.1373508236499577,"66":0.14295984828479003,"67":0.10226965860727584,"68":0.040469802439806746,"69":-0.16927507149322585,"70":-0.09922486506114414,"71":0.0916776540199323,"72":0.11915001367390714,"73":0.09987631033782257,"74":0.10401660826498246,"75":0.04029462534055317,"76":0.00870903395892417,"77":-0.009621886900207812,"78":-0.19338518482210257,"79":-0.10719433507792148,"80":-0.03553979924477967,"81":0.08475324344528318,"82":0.09954799919707426,"83":-0.047629396774531915,"84":0.1843578153007283,"85":0.0688200921137844,"86":0.09891037008423463,"87":-0.036725713895146346,"88":0.19745129619349644,"89":-0.14529228278778566,"90":0.17171477691289153,"91":-0.0733810065686799,"92":-0.0837847668449283,"93":0.12122898993160287,"94":-0.10638289307056978,"95":-0.10500357083048799,"96":-0.13354042980940145,"97":0.0431188042762257,"98":0.1333774055971099,"99":0.07856558861804847,"100":0.07097864944237765,"101":0.15511171440193755,"102":0.05846964648750096,"103":-0.10901930417173404,"104":0.08091924486681837,"105":0.07669564338230207,"106":-0.07988188289286581,"107":0.03720604150366048,"108":-0.12268733702456483,"109":0.039494656860245426,"110":-0.005252970895423976,"111":-0.1332296135210932,"112":0.16020927717427885,"113":-0.0774421036507047,"114":-0.07562880396551605,"115":0.06263889810636195,"116":0.08748922316541809,"117":-0.1150914281736579,"118":-0.027130534170514836,"119":0.18701194467442056,"120":-0.02390865886821556,"121":0.08238619866965594,"122":-0.029506770913944488,"123":-0.00917025672642052,"124":0.0670545406023948,"125":0.08923401514957573,"126":0.04723635798140692,"127":-0.1883417470192129}},"7":{"bias":0.11781813083533402,"weights":{"0":0.1690523501416731,"1":0.144698684381941,"2":0.015586315183780284,"3":0.09753369740014665,"4":0.20455432362228318,"5":0.042281178685792786,"6":0.03365894779522565,"7":-0.15876439003636023,"8":-0.1684882685543138,"9":0.13565557079366178,"10":-0.14405443745903643,"11":0.09497776040874897,"12":-0.17899874663965606,"13":0.046367293899494524,"14":0.06198812686748046,"15":-0.11249429108997634,"16":0.03593469972242009,"17":0.09831724465890426,"18":0.040840201538412446,"19":-0.011422289469214005,"20":0.11468034803228778,"21":0.1149065517307698,"22":0.1370275898260204,"23":-0.0773931405240594,"24":-0.16132132151216402,"25":0.12690199822192733,"26":0.17237284505728845,"27":-0.08056072140664411,"28":-0.0032477119188179518,"29":-0.07037973725656484,"30":-0.056274885041958586,"31":-0.18869862973436,"32":0.10058132966578387,"33":0.017399731645051403,"34":0.10528638202825377,"35":0.17806564441340395,"36":0.17963699953773737,"37":-0.1879713837419481,"38":-0.00652986690362065,"39":-0.18947106546749462,"40":-0.12948562391078197,"41":-0.055309221376953134,"42":-0.10058888101510217,"43":-0.17751488001717022,"44":0.1562943771532332,"45":0.08982828440330601,"46":-0.008006915548706913,"47":0.07532890896166484,"48":-0.007570600670473399,"49":0.09493625603048618,"50":0.017828625536106715,"51":-0.00009203203629395848,"52":0.10859670772091419,"53":-0.11073653223598799,"54":-0.046205366837952996,"55":-0.01648549955324067,"56":0.1829268670959795,"57":0.06401281338623861,"58":-0.16964326936319352,"59":0.09616092233564268,"60":0.01946089207695595,"61":0.10058839674404187,"62":0.059530066640525826,"63":-0.02248545083816347,"64":-0.011862613690981112,"65":-0.04293035937029259,"66":-0.07604035925342112,"67":0.17495765930580004,"68":0.023500215395905157,"69":0.1924482640824778,"70":-0.03794850577966058,"71":-0.11031333110980181,"72":0.08188800877373108,"73":-0.1400758337437099,"74":0.08726010472871891,"75":0.10982752730022406,"76":0.1767111684918275,"77":-0.07457430975760831,"78":0.09257288674462821,"79":-0.091282311995199,"80":-0.07537200967123693,"81":0.004476101787123626,"82":0.123114977433613,"83":-0.19493338702451593,"84":-0.16899270875432398,"85":0.038822286669173256,"86":0.1341312734784427,"87":0.10057017879473643,"88":0.10193557384564839,"89":0.11428342349800845,"90":0.13082482756211247,"91":0.07345158511926174,"92":0.1614416429890821,"93":0.17114152901942206,"94":0.10741480491868131,"95":0.008435611767258825,"96":-0.14335412504163986,"97":-0.20956923602120067,"98":-0.15143626319050793,"99":-0.14209069745477712,"100":-0.09652357678878237,"101":0.028512895884947986,"102":-0.14593107764368657,"103":-0.19362713448952734,"104":0.05222453009243522,"105":-0.042131956086735325,"106":0.1604266069830938,"107":0.07423256926712499,"108":0.11909449955036955,"109":0.07118030764410997,"110":-0.00039900483126332315,"111":0.10305514857316571,"112":0.13007499465984018,"113":-0.18982284885323078,"114":0.0835925308427029,"115":0.08008340892354854,"116":0.10295597044653414,"117":0.03967447501501265,"118":0.11786958366824105,"119":-0.06881704475629638,"120":0.08818764690134062,"121":0.1456310081684364,"122":-0.10445776028574458,"123":-0.11999765234382952,"124":0.04114136596422845,"125":0.04537639175782932,"126":0.03403568528008121,"127":0.11265474181503576}},"8":{"bias":0.16272239958915308,"weights":{"0":0.174016256444883,"1":-0.0634101571523176,"2":-0.1849293205307647,"3":0.18982372501366288,"4":0.20512743405555542,"5":0.13221176480885183,"6":-0.029203672116701523,"7":0.016750801059146923,"8":0.20271293309975805,"9":-0.09876635529970534,"10":0.03135039945463896,"11":0.05306244623606455,"12":0.020802876536145445,"13":-0.0675551874773977,"14":-0.0554653903171841,"15":0.17092466967148745,"16":0.20581700385896187,"17":0.12260703589145583,"18":-0.15149868243760614,"19":0.17779489537778964,"20":0.0017456502448737984,"21":-0.18434345519058484,"22":-0.13438418606187985,"23":0.19583982353130702,"24":0.07831614260723985,"25":0.13263832828531844,"26":-0.04868954814812442,"27":-0.07295305346137332,"28":0.12554745529858477,"29":0.007931629052026271,"30":0.04931933806146145,"31":-0.018818640934367567,"32":-0.17381624440806057,"33":-0.08512380601898223,"34":0.07593710201927183,"35":0.020560417568729738,"36":0.05132894446297522,"37":-0.07786276310767878,"38":-0.09694543473265119,"39":-0.19415745424048525,"40":-0.07455905010187781,"41":-0.06437232435516864,"42":-0.0564753551153504,"43":-0.03571020469341509,"44":-0.09857625291878443,"45":-0.08272619488667193,"46":0.1852592266016893,"47":-0.029632347076205403,"48":0.09386376900321043,"49":-0.1616014164449691,"50":-0.127712838962069,"51":-0.07804567477624925,"52":-0.1435692183725023,"53":0.16870644569242357,"54":-0.18533925594863987,"55":0.06748954972642471,"56":0.06098275277041789,"57":0.03431258293935465,"58":-0.19063352835859357,"59":-0.06168974977542625,"60":0.05185205565206475,"61":-0.13100333862082014,"62":-0.007018778441781584,"63":0.10050539447924621,"64":0.17509817840886696,"65":-0.01066311834715466,"66":-0.2030108709195759,"67":-0.08214051720960482,"68":-0.05625438515383404,"69":-0.06913390989586471,"70":-0.14957133465867603,"71":-0.08335908732203694,"72":0.09501612492813935,"73":-0.0010629830335947877,"74":-0.16167701443951765,"75":-0.14033451356952717,"76":0.049623254490767404,"77":-0.12308476659916466,"78":0.03569744062935329,"79":-0.08643655605564778,"80":0.03971832627414155,"81":-0.0619773726999521,"82":0.07140908913545052,"83":-0.04814656390451763,"84":-0.01648429480112375,"85":-0.1445707129967557,"86":0.06694558257105125,"87":-0.18746623458012035,"88":-0.14931074288032323,"89":-0.16972295038233193,"90":-0.1653628625042355,"91":0.07322111083803082,"92":-0.05840247842869183,"93":-0.13399879323706337,"94":-0.032369737632899895,"95":-0.11902726006519303,"96":0.0018857271898414763,"97":-0.029776148872694124,"98":-0.13751557195558947,"99":0.18208399995398136,"100":-0.07412005891404448,"101":-0.11397540313419029,"102":-0.029537322534373394,"103":0.00002572377217099485,"104":-0.1909163999682292,"105":-0.030001909013561333,"106":-0.02836805804785703,"107":0.02461469105092543,"108":0.18544405662754826,"109":0.10475045496673883,"110":0.10685418333708534,"111":0.05087206657948789,"112":0.12933699833584106,"113":-0.024645593673898507,"114":0.16905770489836616,"115":0.1074812052543097,"116":-0.06598625167112247,"117":-0.029122614993147097,"118":0.2063071829421126,"119":0.10952198404069759,"120":-0.05867670959261239,"121":-0.18585842054546564,"122":0.07795829385103253,"123":-0.18829499093404475,"124":-0.07891245608711131,"125":-0.15253921856065442,"126":0.08642405797884384,"127":-0.06675640120748548}},"9":{"bias":0.11667745641438007,"weights":{"0":0.11432977939531885,"1":-0.19454546380374985,"2":-0.07475553057125087,"3":-0.052580371666447676,"4":-0.035301022892621256,"5":-0.026707677316433937,"6":-0.0035120017982603435,"7":-0.11725749742901954,"8":-0.19338981747821749,"9":-0.1906456673505139,"10":0.19654327086326945,"11":0.042613529837772175,"12":-0.16958532014146274,"13":0.1653818350120097,"14":0.17593551749804337,"15":0.11491778106751042,"16":-0.03467172368302967,"17":-0.10622317613874611,"18":-0.19496050085866504,"19":-0.1026821458025135,"20":0.1377156460146277,"21":0.20081457264971,"22":-0.04394335721419668,"23":0.016009314313278258,"24":-0.0782460923009961,"25":-0.14855842039969172,"26":0.13339642470066104,"27":0.034774256013287624,"28":-0.0630206187195309,"29":0.03431295206523068,"30":-0.17606099334888856,"31":-0.17910091343531892,"32":-0.07105726701077102,"33":-0.08169031533954663,"34":-0.03430709149174116,"35":-0.0797487353144208,"36":0.013395920274801132,"37":-0.17655540667986214,"38":0.06484337879485721,"39":-0.11690983950414179,"40":0.1677655621164587,"41":-0.01872711658038536,"42":0.06261497659560405,"43":0.09517670825421672,"44":0.19889003205143088,"45":-0.07978662669946728,"46":0.01868865372538093,"47":-0.12702711776138545,"48":0.10270611115789487,"49":-0.008096555368986761,"50":-0.19191812476398518,"51":0.003019503652026014,"52":0.06268740889322862,"53":-0.10825283874536526,"54":-0.14832807502673898,"55":-0.05177743566694496,"56":-0.004713184149254111,"57":-0.20061498289673893,"58":-0.014957007130994198,"59":0.08904809154021127,"60":-0.15477430219821675,"61":-0.1435366122818284,"62":-0.08284469196945812,"63":-0.0748646324583762,"64":-0.021059550579264303,"65":-0.04002476139103677,"66":-0.029410474209582017,"67":0.18044252912653122,"68":0.07866738405801647,"69":-0.1333725981677392,"70":0.1866011282045133,"71":0.169851086621768,"72":0.05037797159307983,"73":-0.1069073626408606,"74":0.11527661939269251,"75":0.13425154490384245,"76":-0.1622058883472361,"77":-0.13018512685365133,"78":-0.010615562671035257,"79":0.13162262987242881,"80":-0.08852646647047169,"81":0.07601409969014308,"82":-0.1393272103139386,"83":-0.10110045842794277,"84":0.043570239898869885,"85":0.042922501872224565,"86":-0.17897845084233033,"87":0.1369761629723502,"88":0.057177485945659634,"89":-0.07541487733027069,"90":-0.07897657603678791,"91":0.1755343546233051,"92":-0.15698530774116531,"93":0.0858119855928819,"94":0.10206501515935694,"95":0.0541810470514003,"96":-0.1373232571358311,"97":-0.11332029460438513,"98":-0.04589290359411855,"99":0.1520216657851209,"100":0.14905946931908304,"101":0.01971441453424086,"102":0.18405581962078124,"103":-0.1666252903644845,"104":0.09394464947782394,"105":-0.13936395223091425,"106":-0.12869245626494047,"107":-0.1414021846311409,"108":0.017715991834983763,"109":0.04843959274856747,"110":-0.07195559455320559,"111":0.17712891141791387,"112":0.01183496441657651,"113":-0.031162490883743618,"114":0.09795521435756817,"115":-0.07616924854830126,"116":0.009769110416148558,"117":-0.0885050366149935,"118":-0.003653762702598539,"119":0.1817286940899597,"120":-0.0420586265907265,"121":0.055725360958633965,"122":-0.1500538234155729,"123":0.0057169808704840615,"124":0.0732466897761632,"125":0.13568337427613714,"126":-0.03009919347291905,"127":0.12629647135787087}},"10":{"bias":-0.07166488838413464,"weights":{"0":-0.08396788543538096,"1":0.08475670694233998,"2":0.08128238047352292,"3":0.09666177375405116,"4":-0.19153551129227395,"5":-0.05453537318569483,"6":-0.11158529451843804,"7":-0.03434029709656301,"8":-0.08030208398785856,"9":0.18972776334472966,"10":0.17253810822671323,"11":0.17009261225055367,"12":0.19317693214915613,"13":-0.08084726956415977,"14":0.11114873340505041,"15":0.07970289019941221,"16":-0.21725073511189752,"17":0.11238911242471072,"18":-0.0882811961839292,"19":-0.13571163814026288,"20":0.05465144040037397,"21":-0.08920529776842326,"22":-0.022955558196799907,"23":-0.1018818601040139,"24":0.03322273735285031,"25":0.1173124044404165,"26":-0.006183085303361117,"27":0.11192096438964846,"28":-0.166712306060754,"29":-0.1055348241219635,"30":0.09117488494769765,"31":-0.08210278117047286,"32":-0.07900677467410673,"33":-0.15151541924722745,"34":0.14827240922384358,"35":-0.021481886362611814,"36":0.04111504751944857,"37":0.1785433958024408,"38":0.09465669887362159,"39":0.18830942174890786,"40":-0.12385331432141909,"41":-0.19140828154914993,"42":-0.01984648704197308,"43":0.10954942764624222,"44":-0.19672798442682843,"45":-0.20958038951579475,"46":-0.14281444832964757,"47":0.050365730915507834,"48":0.1946874519162288,"49":0.004008510390239971,"50":-0.0024780710137381895,"51":0.019222051831626653,"52":0.150593849682236,"53":0.09448165684957659,"54":-0.15883862661687234,"55":-0.13834089220093151,"56":0.14137892875047944,"57":0.05475811592374064,"58":0.18860152661107518,"59":0.07936608346187497,"60":0.20735147753516026,"61":0.11887469852238419,"62":0.05490162488185824,"63":-0.052620551006067696,"64":0.035187437383756806,"65":0.14287708521833592,"66":0.18854505460619103,"67":0.12907381974529156,"68":-0.12944568233058698,"69":-0.04007333560768526,"70":-0.09678675153929771,"71":0.03526016765627719,"72":0.1271442126115092,"73":-0.023985396556860886,"74":-0.17960636466592136,"75":0.13121010101885403,"76":0.1499713355254293,"77":0.12273668013213845,"78":-0.014679730057766002,"79":0.020695140146039348,"80":0.024259799069972953,"81":0.18627338910832555,"82":0.16309725299855432,"83":-0.01360335447198465,"84":0.14351327365747413,"85":-0.1330907168061901,"86":0.1326605966039102,"87":0.02312152555499851,"88":-0.09031804906907893,"89":0.1494515138828944,"90":0.0527157348281245,"91":-0.04714898847330302,"92":-0.05452804842470696,"93":-0.0850027063747315,"94":-0.0745925198826765,"95":0.1623987463264897,"96":-0.003792397074693579,"97":0.07134085149910259,"98":0.08475975549572992,"99":-0.12662795193489954,"100":-0.1674737252664688,"101":-0.0304919597608388,"102":-0.11888635657239172,"103":-0.11872243790203661,"104":0.10801632198198373,"105":-0.16078616010418062,"106":-0.144989905735245,"107":0.0485542324816938,"108":-0.1687101303968457,"109":-0.07199286329597528,"110":0.035620074535092326,"111":0.17029588818313493,"112":-0.0885677133165467,"113":0.12720753543042604,"114":-0.17237286973929625,"115":0.0727280431799425,"116":-0.03623764724954415,"117":-0.10244208246212455,"118":0.08813325869757953,"119":0.17272113390157182,"120":-0.06045976485972654,"121":0.06542289484456058,"122":-0.17711098098878023,"123":0.17286409146950346,"124":0.15067504121837672,"125":0.03806201740064754,"126":0.16293261488445884,"127":-0.13120607792307815}},"11":{"bias":-0.0635687325683528,"weights":{"0":-0.06851472021274951,"1":-0.1560241585944449,"2":-0.08787354919145658,"3":0.05783546323837846,"4":-0.17448141771502304,"5":0.021246871849631612,"6":-0.015223971539290917,"7":0.03810276874447495,"8":-0.1145311141058418,"9":0.15067242662908692,"10":-0.13013036715098633,"11":0.1466666316966744,"12":0.18619795573983214,"13":0.0023376708490844065,"14":-0.04723517598805224,"15":0.156667907282344,"16":-0.13155307113469855,"17":0.0758097554652733,"18":0.13945477571274326,"19":0.027179344927291477,"20":-0.08188182863247011,"21":-0.015011607757820108,"22":0.020344968708362964,"23":-0.02443069166062362,"24":-0.014078526130978701,"25":0.16331853225350876,"26":-0.002423097429692243,"27":-0.16367672227946345,"28":-0.1904322157079215,"29":-0.12074436880908318,"30":0.008406887256850796,"31":-0.19600110809913068,"32":-0.06507390887116038,"33":-0.1054611994448887,"34":-0.024759280068409772,"35":-0.150674922349145,"36":-0.03253631161594127,"37":-0.16535519260731368,"38":0.012327928143262626,"39":-0.02400549831811397,"40":0.056838315942616395,"41":-0.14857976610208173,"42":0.12774054416525915,"43":0.17197633754905287,"44":-0.1593498670998149,"45":-0.19826222059995965,"46":-0.152700746598487,"47":-0.11400733065943364,"48":0.040111279549641575,"49":0.15400423828586673,"50":-0.0776510065911696,"51":0.09946741151682334,"52":-0.03470504853367949,"53":0.014193200110863002,"54":0.01918024449069224,"55":-0.17092816567577024,"56":-0.18737205532532306,"57":-0.13772037863276657,"58":0.02269915712856607,"59":0.11030868788139696,"60":-0.13407026937800412,"61":0.08794763678742326,"62":-0.1831120822317062,"63":0.18406743904252915,"64":0.0675732670734741,"65":-0.013603611886302498,"66":-0.020019242181295884,"67":-0.17644692137184265,"68":0.19347089930416997,"69":-0.055635105412640336,"70":-0.08192679426430824,"71":-0.08175575768987825,"72":-0.16487367910918463,"73":-0.18507229956245164,"74":-0.04804465989792717,"75":0.015887629070987657,"76":-0.09717025281859631,"77":-0.11409523918270217,"78":0.19461011242371268,"79":0.10304069252434235,"80":-0.16105317175610737,"81":-0.15895069959408095,"82":-0.12348746653354403,"83":-0.16987774525626495,"84":-0.19005647911533605,"85":0.029480836486736793,"86":0.10941047031714823,"87":0.07492071607984326,"88":-0.06767680388705213,"89":-0.13894829986466384,"90":0.15876530356767737,"91":-0.16844398959103113,"92":-0.13291696821680718,"93":-0.14660976182942548,"94":-0.12235878921297656,"95":-0.0841771139997337,"96":0.08244370627363554,"97":-0.14883690861438525,"98":0.03278361312992135,"99":0.023993624053614944,"100":-0.058712126653203134,"101":-0.029301283806456208,"102":0.18114293568370166,"103":0.05309803807162532,"104":-0.07955930907674957,"105":0.004902879865780207,"106":-0.0720656987609341,"107":-0.17248728606862834,"108":0.11819412114436474,"109":-0.08691447032083982,"110":0.16016790707621179,"111":0.194382516952739,"112":-0.1760677534052561,"113":0.008894354111852064,"114":-0.07193283959731232,"115":-0.17432808513101633,"116":0.18437360608004152,"117":0.1749107575533884,"118":0.114411132889749,"119":-0.07750844777001883,"120":-0.01805727011647637,"121":-0.06244301812395291,"122":0.1369088274922704,"123":-0.09381987599406483,"124":0.19862569769908703,"125":-0.01866172711279826,"126":-0.05805113547930412,"127":-0.14825347428147861}},"12":{"bias":-0.07481798291693588,"weights":{"0":0.03462593649460193,"1":0.08578392566911043,"2":-0.013433071495138043,"3":0.07733873555508489,"4":0.242476144976031,"5":0.09545971747565889,"6":-0.12011112765239242,"7":0.06163730464526474,"8":0.01649539961757652,"9":0.03512228114310663,"10":-0.052270813425419387,"11":0.056666039471315224,"12":-0.11929877018087111,"13":-0.06461850152354011,"14":0.03812496009126573,"15":-0.21183716417751958,"16":-0.046479308029386435,"17":-0.03839329281573578,"18":-0.15215210077031735,"19":0.15787234056659805,"20":0.019419737706548135,"21":0.1282827115426874,"22":0.13696484865153014,"23":0.07140017375096826,"24":0.060751607262315474,"25":0.15990867381775725,"26":0.13051222903617954,"27":0.08339145457597821,"28":-0.04927056989269763,"29":0.0077231694074673014,"30":0.1530690640045377,"31":0.12032200296023922,"32":-0.00021870928635302138,"33":-0.022658865524517798,"34":-0.1129156852697537,"35":-0.2102364286509545,"36":-0.1058323859119082,"37":-0.20110465405689434,"38":0.18300152882884807,"39":-0.1945781169729487,"40":-0.033359233203548576,"41":0.03487905626991381,"42":-0.16383023663127383,"43":-0.13892364936792995,"44":-0.15205427919201045,"45":0.23490018886285413,"46":0.06242762628857431,"47":0.15565995502269436,"48":0.16684120327400376,"49":0.11381753326564793,"50":-0.0723989832981185,"51":-0.1562179175814022,"52":0.19495325386470017,"53":-0.06918696451141029,"54":-0.1492794050731018,"55":0.04761320954977918,"56":-0.09835158820818224,"57":-0.08136891142025528,"58":-0.04684031648535421,"59":-0.1010027477806593,"60":-0.017620817242790385,"61":0.028345665383824038,"62":-0.145918337621685,"63":-0.013042244039105118,"64":0.16852390026478628,"65":-0.1622635425728073,"66":-0.05848608672947965,"67":0.14296089332109946,"68":0.1148220432208823,"69":0.07217463310290564,"70":-0.1735169751502818,"71":-0.13675552330366575,"72":0.01942510327057607,"73":-0.037014269583362264,"74":-0.13914788972855438,"75":-0.18782868972959696,"76":-0.12825709917548309,"77":0.2237529137503331,"78":0.13375235170481503,"79":0.15400085034406616,"80":-0.19240575082635356,"81":-0.09688923389231018,"82":-0.12842518834590863,"83":0.13429271161049217,"84":-0.2169422138134927,"85":-0.21609391572331538,"86":0.22577367503393267,"87":-0.03027201960289235,"88":0.015896464578488353,"89":0.15090965540705387,"90":-0.01998585512220874,"91":-0.13551768344889334,"92":-0.16957379735866915,"93":0.04149075319762565,"94":0.1502971292136308,"95":-0.14247008536621314,"96":0.09203069143692859,"97":-0.05987715336367118,"98":-0.1358789080632909,"99":-0.10376440237310923,"100":-0.07757171001901962,"101":-0.04182043653465122,"102":-0.11373534025934287,"103":0.10660285993443444,"104":-0.17486172448959322,"105":0.2577248567540291,"106":-0.10765963368813576,"107":-0.015903847677032856,"108":0.07786528585938515,"109":-0.03404931122391014,"110":-0.0034555315653882184,"111":0.055726974741438604,"112":-0.10152251808220362,"113":-0.1089039972219639,"114":-0.07337411508551596,"115":0.10133515454034313,"116":-0.18765532365324442,"117":-0.013239538464105983,"118":0.16156149871684042,"119":-0.03386068274801717,"120":-0.1117608208317389,"121":0.0028544897249031167,"122":0.07992655488224316,"123":-0.14025658755485443,"124":0.017477921755830628,"125":-0.039091705821230484,"126":-0.0787383743150318,"127":-0.10712024218029995}},"13":{"bias":-0.0651649295352421,"weights":{"0":-0.07156160924271453,"1":0.06915574743383794,"2":-0.1147598215833371,"3":-0.125315019430497,"4":0.12567226668626372,"5":-0.008427615285882177,"6":-0.11398535548037453,"7":0.1265142134988404,"8":-0.048747919264779796,"9":-0.07678078054204819,"10":0.05066721817161283,"11":-0.026129568903607597,"12":-0.1255338991858313,"13":-0.17858536968265756,"14":0.01446363428313409,"15":0.14261106822790845,"16":0.048981902407973725,"17":-0.09874611846888685,"18":0.013095986355340832,"19":0.005684058820491829,"20":0.08880134687725476,"21":-0.19590132915960207,"22":0.19085161061432335,"23":-0.04968593821565394,"24":0.02288547832313118,"25":-0.12206087550527206,"26":-0.15518525772940733,"27":0.0737765796794696,"28":-0.06233391908221455,"29":0.09909440481657106,"30":0.08391468153937146,"31":0.04167062620665692,"32":-0.1773870353154376,"33":-0.1317811992784811,"34":0.17031309963500313,"35":-0.08300171733362147,"36":-0.05352642103130508,"37":-0.16731540117888005,"38":-0.1806942619579643,"39":-0.16885208557656164,"40":0.023699165210606027,"41":-0.009480072764804422,"42":0.11381400288023726,"43":-0.04545874809255997,"44":-0.025995128115977494,"45":0.03910698899688171,"46":-0.14819819246894536,"47":-0.11508020642094036,"48":0.11124576576452734,"49":-0.02601214972564098,"50":0.10178513953876074,"51":-0.050646885704602636,"52":-0.1282518180602885,"53":0.03118392230988763,"54":-0.03135396148720948,"55":-0.12135827518533254,"56":-0.0871994789745204,"57":0.10118447901578577,"58":-0.07703340155930094,"59":-0.06861215616836971,"60":-0.18223240017019054,"61":-0.1497726246192081,"62":0.0811228064846928,"63":0.18736466269494317,"64":0.10332430613260314,"65":0.1929178436280321,"66":-0.07174925898209199,"67":-0.17713558207134902,"68":0.04412513669399166,"69":-0.1907920610762495,"70":0.012044639303077887,"71":-0.14596527869683598,"72":-0.1353006941781785,"73":-0.06739215708617936,"74":-0.18675593665567586,"75":0.17133248252982028,"76":-0.1256732732338604,"77":-0.14663818234204595,"78":-0.06873086150811486,"79":0.10918872309404418,"80":-0.0263032702602719,"81":-0.18323793965323124,"82":-0.14169975694419396,"83":-0.0500688489830843,"84":-0.05318942238584428,"85":0.014401902519467201,"86":0.015341878059789487,"87":-0.09057022986405545,"88":-0.11108224132701333,"89":-0.08951428166936991,"90":0.0689564948022079,"91":0.16182677702076198,"92":0.0006396197456274987,"93":-0.0586106836834266,"94":-0.016888146426653816,"95":-0.042247475019368444,"96":0.1683946836679068,"97":0.017720898216087237,"98":0.0037798065000808783,"99":0.158981514974263,"100":-0.060141415094581645,"101":0.010821435284295753,"102":0.18510978156937974,"103":-0.09571850478606239,"104":0.049825590177044694,"105":-0.19855562940088453,"106":-0.0996314782658913,"107":-0.1784020360263152,"108":0.028550232071253682,"109":-0.0028897190343038703,"110":0.03903764200989249,"111":-0.11562984903743523,"112":0.1492942380582827,"113":-0.18643361466839264,"114":-0.0762393252323933,"115":0.06512680848497536,"116":-0.13752472506356342,"117":0.11162772304528061,"118":-0.20229071060624748,"119":-0.13148399528593865,"120":0.11448119027520283,"121":-0.15296487947168394,"122":-0.0010611554808938274,"123":-0.15900517728705266,"124":-0.1657569450901782,"125":-0.14530681666476702,"126":-0.1256489216255602,"127":-0.18026241526155962}},"14":{"bias":0.10813351245121942,"weights":{"0":0.10643806729532794,"1":-0.08839380586489873,"2":0.05447139461633922,"3":0.13533454057353836,"4":0.09463916984338223,"5":-0.022272421564393033,"6":-0.1982472635736138,"7":0.0163662449378733,"8":-0.17713275623379668,"9":0.13445805032878969,"10":-0.10077139007897126,"11":-0.1570598830482901,"12":0.0003404471729220727,"13":0.15908479673971235,"14":0.04713259905959998,"15":-0.17577373767157256,"16":-0.07583947170573463,"17":-0.20002887238606032,"18":-0.05888364997326985,"19":0.17542478428156788,"20":-0.020580651246849744,"21":-0.03120208301148757,"22":0.07681940553313388,"23":-0.009543338557669083,"24":0.14107309348818037,"25":-0.16384068219747136,"26":0.1538170062535839,"27":0.04418441822114362,"28":-0.09496095634419072,"29":-0.033390428837354956,"30":0.06672774932410462,"31":-0.0046386964409113355,"32":0.07820984106313729,"33":-0.18730827797239535,"34":-0.004282831185559146,"35":0.09871842512427127,"36":0.04132600126474543,"37":0.15840770583648864,"38":0.018793864589573075,"39":0.1809370263129313,"40":0.17236893035783973,"41":-0.0310637566807424,"42":0.09635323774332513,"43":-0.07623587675879778,"44":0.13952423804220862,"45":-0.020027552707250106,"46":-0.05146655058197286,"47":0.030494050506904194,"48":0.0829860910232551,"49":-0.20214765155041636,"50":0.13322709370217564,"51":-0.01839989128414195,"52":-0.14144103091474075,"53":-0.07895830878356198,"54":-0.0391451248442429,"55":0.03857187434107084,"56":0.03825126540157119,"57":0.17576008901855933,"58":0.018038472081749458,"59":-0.03747543989147062,"60":-0.0857873670399032,"61":-0.168991187741404,"62":0.1341336405456704,"63":-0.15050047050107568,"64":-0.06767135706195611,"65":0.06802817125447286,"66":0.10611767474897273,"67":0.17172246159648072,"68":0.0060880016987983,"69":0.04855833915847269,"70":0.17760253869836065,"71":-0.060550743801706185,"72":0.029568792402968176,"73":0.02165292031973397,"74":0.09777774470068676,"75":0.002363817380604948,"76":-0.07124151715144054,"77":0.1641180611408493,"78":-0.05350446594252758,"79":0.10017208854597141,"80":-0.0017989647543495669,"81":-0.18463015825859166,"82":-0.12089878489504531,"83":-0.10378066321781078,"84":-0.01902010674345788,"85":0.0005989669162637688,"86":-0.117418246590309,"87":0.14347632196299692,"88":0.0794487180196096,"89":-0.11267454612555997,"90":-0.1381990764828293,"91":0.021601252893848275,"92":0.15715614631992422,"93":0.015953971810477773,"94":0.08094487885153881,"95":0.09333368963522459,"96":0.007565186513921674,"97":-0.0021155105450291816,"98":0.012877278548287607,"99":-0.04434799765963806,"100":0.1707662199513019,"101":0.04962772508364164,"102":-0.12773024769332578,"103":0.08125518146574438,"104":-0.20539798071843207,"105":0.21466381277524696,"106":-0.11712280558192989,"107":-0.14526208690740933,"108":0.1506831523784649,"109":0.12244082857269073,"110":0.06171523286667876,"111":-0.12873214664875302,"112":-0.13496425102846446,"113":-0.06089881194436696,"114":0.11045714852714973,"115":-0.17349218570066355,"116":0.1279354023318276,"117":-0.07697012803584526,"118":0.024802000100975757,"119":-0.05339237780566083,"120":-0.16421953106376708,"121":-0.05260414084171632,"122":-0.1235112684978918,"123":-0.17402927413444025,"124":0.165794597589348,"125":-0.10889129908838675,"126":0.15867091211687165,"127":-0.12618558008553588}},"15":{"bias":0.12455193071893879,"weights":{"0":-0.2012706757341195,"1":-0.20980762338431616,"2":-0.11169580278952104,"3":0.08571983437888364,"4":0.23652540781159148,"5":0.20093040950008373,"6":-0.08391154319742866,"7":0.08517975422742513,"8":0.19563989886694688,"9":-0.017968922761364473,"10":0.10534642564536045,"11":-0.11835520440558381,"12":-0.009467680010870292,"13":0.13694667319822865,"14":-0.043397190130304394,"15":-0.016905938214241058,"16":0.21751335303170882,"17":0.035771980027528655,"18":-0.09823307938528524,"19":-0.18614036381587004,"20":-0.17364014109187864,"21":0.19196228631642687,"22":-0.12037125890916074,"23":0.061894563498243106,"24":-0.10295661615577734,"25":-0.14192841656328725,"26":-0.1742207104160835,"27":0.022408479212508204,"28":-0.041004971282167325,"29":-0.06056186076743825,"30":0.09067191122641312,"31":-0.13582173363937672,"32":0.0166218811708844,"33":0.12870572004151468,"34":0.03744670672301666,"35":0.13498948641991926,"36":-0.0827177443076033,"37":0.0702039383397016,"38":0.11619167002851655,"39":0.005061696666508542,"40":-0.13446324109487626,"41":-0.06832669428900484,"42":-0.13948975821046378,"43":0.058986129788588776,"44":-0.15147546701023257,"45":0.18864486784252685,"46":-0.10319424402748248,"47":-0.13755141141117,"48":-0.012746451875301476,"49":-0.18768935735267112,"50":-0.08859913508797683,"51":0.1228379036313163,"52":0.1498799470819534,"53":-0.22582761769669346,"54":0.024737183619844404,"55":-0.009596734212852658,"56":-0.07739753128412599,"57":-0.1404369747465963,"58":-0.05453973424721971,"59":0.026756623690914062,"60":-0.23231546971608924,"61":0.141968285669105,"62":-0.020304596232584807,"63":0.131549594628386,"64":0.018957602170386327,"65":0.1617625973462143,"66":0.015886072337827063,"67":-0.05027092432633655,"68":-0.1810846887403952,"69":-0.05184612497026675,"70":0.014280309666292453,"71":0.1456225610225368,"72":0.19673527681433456,"73":0.1885190857760278,"74":0.17066766104622966,"75":-0.17635198969842053,"76":0.033682736372828447,"77":0.029240762020138387,"78":-0.06409191861590512,"79":-0.13885465998223445,"80":-0.12339433551554098,"81":-0.21744224940683482,"82":-0.017126901281700233,"83":-0.22678913603304865,"84":-0.08610807997428105,"85":-0.14586914960499148,"86":0.13379039020474634,"87":-0.26764962978096457,"88":0.06096883836952286,"89":-0.04521305310878172,"90":-0.23600073270591335,"91":-0.18268677833658217,"92":-0.02939088701349581,"93":-0.1439778167372311,"94":-0.07348873757700271,"95":0.17800450766913115,"96":-0.08058973528798903,"97":-0.19012643476785404,"98":-0.08242291748260637,"99":-0.1556404218857061,"100":0.144231405619612,"101":0.13975411520819375,"102":0.027131715911295397,"103":0.05321957454708592,"104":-0.1340234849212855,"105":0.16008166403782717,"106":0.030828492713006823,"107":0.14588982065134595,"108":0.1932999007848471,"109":0.09944499233458282,"110":-0.12654525957760704,"111":-0.20515897052786033,"112":-0.04410281360909082,"113":-0.19549846938115878,"114":0.06015869301261702,"115":0.12569832394302854,"116":0.00945899784793534,"117":0.08304303287225248,"118":0.1972878179705203,"119":-0.01207823543803676,"120":-0.12469688663771489,"121":-0.23007826209869345,"122":0.03743239552501524,"123":0.00888540462847092,"124":0.21534370238604436,"125":0.025580473581176898,"126":0.15207240490570248,"127":0.051522575330625944}},"16":{"bias":-0.030053052270136424,"weights":{"0":0.16916503678310507,"1":0.13983190071836718,"2":0.11913171323848709,"3":-0.15628803912529873,"4":0.06402612539408138,"5":-0.21037910375852958,"6":-0.15507146150095255,"7":-0.12884949118351277,"8":0.10114416902950069,"9":0.09330428700474741,"10":0.001312618110895373,"11":0.03786236684080678,"12":-0.0660028345914027,"13":0.024152038759484584,"14":-0.18767291177246662,"15":0.07706471158206515,"16":-0.18694342472769326,"17":-0.18069023675380946,"18":0.08072233066766636,"19":0.1591835259464148,"20":0.06335954941532243,"21":0.1551144265109483,"22":0.05775339325857326,"23":-0.1694202772081054,"24":0.13715989271901172,"25":-0.15511376820366182,"26":0.13898344891722306,"27":0.0824193653514422,"28":-0.16324945126355955,"29":-0.08851668069325018,"30":0.10350131654286583,"31":-0.07895435058472068,"32":-0.008764955033816971,"33":0.19832526387183053,"34":-0.19616722198606792,"35":-0.1590432881271892,"36":0.15505224825528888,"37":0.025745179844295966,"38":-0.10340532885589598,"39":-0.038676436278916974,"40":0.15208117820907144,"41":-0.24586949088035723,"42":0.2368395526674159,"43":0.0957657207760052,"44":-0.1809626460712947,"45":-0.12226341945211945,"46":-0.08136768887430353,"47":-0.017474192444176046,"48":0.01973544765847512,"49":-0.05829919462529101,"50":0.17048469930901977,"51":0.20903594964623715,"52":-0.1389095335185172,"53":0.1505983733128429,"54":0.16172292568071797,"55":0.04609357514085825,"56":0.14354537675362428,"57":0.050627774785917096,"58":-0.06921890272885824,"59":-0.0689667233247557,"60":0.12792824796103247,"61":0.1159205243113148,"62":-0.10103600017645106,"63":-0.08183627773582897,"64":-0.06742062024448554,"65":-0.027786339839721952,"66":0.05162591653493433,"67":0.0673801656894564,"68":0.1012264037280336,